{"learner":{"attributes":{"best_iteration":"120","best_score":"0.9722593055743319"},"feature_names":["Time","V1","V2","V3","V4","V5","V6","V7","V8","V9","V10","V11","V12","V13","V14","V15","V16","V17","V18","V19","V20","V21","V22","V23","V24","V25","V26","V27","V28","Amount"],"feature_types":["float","float","float","float","float","float","float","float","float","float","float","float","float","float","float","float","float","float","float","float","float","float","float","float","float","float","float","float","float","float"],"gradient_booster":{"model":{"gbtree_model_param":{"num_parallel_tree":"1","num_trees":"171"},"iteration_indptr":[0,1,2,3,4,5,6,7,8,9,10,11,12,13,14,15,16,17,18,19,20,21,22,23,24,25,26,27,28,29,30,31,32,33,34,35,36,37,38,39,40,41,42,43,44,45,46,47,48,49,50,51,52,53,54,55,56,57,58,59,60,61,62,63,64,65,66,67,68,69,70,71,72,73,74,75,76,77,78,79,80,81,82,83,84,85,86,87,88,89,90,91,92,93,94,95,96,97,98,99,100,101,102,103,104,105,106,107,108,109,110,111,112,113,114,115,116,117,118,119,120,121,122,123,124,125,126,127,128,129,130,131,132,133,134,135,136,137,138,139,140,141,142,143,144,145,146,147,148,149,150,151,152,153,154,155,156,157,158,159,160,161,162,163,164,165,166,167,168,169,170,171],"tree_info":[0,0,0,0,0,0,0,0,0,0,0,0,0,0,0,0,0,0,0,0,0,0,0,0,0,0,0,0,0,0,0,0,0,0,0,0,0,0,0,0,0,0,0,0,0,0,0,0,0,0,0,0,0,0,0,0,0,0,0,0,0,0,0,0,0,0,0,0,0,0,0,0,0,0,0,0,0,0,0,0,0,0,0,0,0,0,0,0,0,0,0,0,0,0,0,0,0,0,0,0,0,0,0,0,0,0,0,0,0,0,0,0,0,0,0,0,0,0,0,0,0,0,0,0,0,0,0,0,0,0,0,0,0,0,0,0,0,0,0,0,0,0,0,0,0,0,0,0,0,0,0,0,0,0,0,0,0,0,0,0,0,0,0,0,0,0,0,0,0,0,0],"trees":[{"base_weights":[-1.1198889E0,2.2435052E0,-1.1333262E0,7.034602E-1,-6.495015E-1,-6.7780924E-1,-1.13430016E-1,2.1051064E-1,-9.137774E-2,3.0236155E-1,-1.07065596E-1],"categories":[],"categories_nodes":[],"categories_segments":[],"categories_sizes":[],"default_left":[0,0,0,0,0,0,0,0,0,0,0],"id":0,"left_children":[1,3,5,-1,7,9,-1,-1,-1,-1,-1],"loss_changes":[6.9816797E2,8.581492E2,6.03125E0,0E0,3.0542437E1,5.441636E1,0E0,0E0,0E0,0E0,0E0],"parents":[2147483647,0,0,1,1,2,2,4,4,5,5],"right_children":[2,4,6,-1,8,10,-1,-1,-1,-1,-1],"split_conditions":[-3.6087275E0,-2.7243354E0,-1.6114689E0,7.034602E-1,-1.8919699E0,-2.4566464E0,-1.13430016E-1,2.1051064E-1,-9.137774E-2,3.0236155E-1,-1.07065596E-1],"split_indices":[14,10,17,0,10,12,0,0,0,0,0],"split_type":[0,0,0,0,0,0,0,0,0,0,0],"sum_hessian":[1.53906875E4,6.0582867E1,1.53301045E4,2.2270008E1,3.831286E1,3.41966E1,1.5295907E4,2.7441716E0,3.5568687E1,2.6386266E0,3.1557976E1],"tree_param":{"num_deleted":"0","num_feature":"30","num_nodes":"11","size_leaf_vector":"1"}},{"base_weights":[-1.104223E0,1.6478441E0,-1.1184617E0,3.7745118E0,-8.864911E-1,-6.4500874E-1,-1.1195084E-1,3.9753655E-1,-1.0323091E-2,1.22568145E-1,-9.992863E-2,2.3583734E-1,-1.05182104E-1],"categories":[],"categories_nodes":[],"categories_segments":[],"categories_sizes":[],"default_left":[0,0,0,0,0,0,0,0,0,0,0,0,0],"id":1,"left_children":[1,3,5,7,9,11,-1,-1,-1,-1,-1,-1,-1],"loss_changes":[5.551172E2,3.9721826E2,6.2382812E0,3.1506653E1,9.361601E0,4.3219673E1,0E0,0E0,0E0,0E0,0E0,0E0,0E0],"parents":[2147483647,0,0,1,1,2,2,3,3,4,4,5,5],"right_children":[2,4,6,8,10,12,-1,-1,-1,-1,-1,-1,-1],"split_conditions":[-3.6087275E0,-1.8919699E0,-1.6114689E0,1.0271646E0,-2.5616944E0,-2.4566464E0,-1.1195084E-1,3.9753655E-1,-1.0323091E-2,1.22568145E-1,-9.992863E-2,2.3583734E-1,-1.05182104E-1],"split_indices":[14,10,17,7,12,12,0,0,0,0,0,0,0],"split_type":[0,0,0,0,0,0,0,0,0,0,0,0,0],"sum_hessian":[1.4118223E4,7.207884E1,1.4046145E4,3.892548E1,3.3153362E1,3.2343155E1,1.4013801E4,3.698463E1,1.9408512E0,1.1805351E0,3.1972826E1,3.2860384E0,2.9057117E1],"tree_param":{"num_deleted":"0","num_feature":"30","num_nodes":"13","size_leaf_vector":"1"}},{"base_weights":[-1.0903667E0,1.3554159E0,-1.1053035E0,2.7933722E0,-8.5895383E-1,-6.148954E-1,-1.10642485E-1,2.9160994E-1,-9.689495E-3,1.3300627E-1,-9.790718E-2,1.9167136E-1,-1.0341264E-1],"categories":[],"categories_nodes":[],"categories_segments":[],"categories_sizes":[],"default_left":[0,0,0,0,0,0,0,0,0,0,0,0,0],"id":2,"left_children":[1,3,5,7,9,11,-1,-1,-1,-1,-1,-1,-1],"loss_changes":[4.7393555E2,2.537836E2,6.3867188E0,1.7344604E1,9.676216E0,3.5489357E1,0E0,0E0,0E0,0E0,0E0,0E0,0E0],"parents":[2147483647,0,0,1,1,2,2,3,3,4,4,5,5],"right_children":[2,4,6,8,10,12,-1,-1,-1,-1,-1,-1,-1],"split_conditions":[-3.6087275E0,-1.8919699E0,-1.6114689E0,1.0271646E0,-2.6836689E0,-2.4566464E0,-1.10642485E-1,2.9160994E-1,-9.689495E-3,1.3300627E-1,-9.790718E-2,1.9167136E-1,-1.0341264E-1],"split_indices":[14,10,17,7,12,12,0,0,0,0,0,0,0],"split_type":[0,0,0,0,0,0,0,0,0,0,0,0,0],"sum_hessian":[1.2930995E4,7.794821E1,1.2853047E4,4.7100716E1,3.0847494E1,3.0571018E1,1.2822476E4,4.5173603E1,1.9271102E0,1.0806617E0,2.9766832E1,3.8358014E0,2.6735216E1],"tree_param":{"num_deleted":"0","num_feature":"30","num_nodes":"13","size_leaf_vector":"1"}},{"base_weights":[-1.0780445E0,1.1693957E0,-1.0936131E0,2.239546E0,-8.91982E-1,-5.8697027E-1,-1.09481156E-1,2.378536E-1,1.6882224E-2,1.3288479E-1,-1.02637485E-1,1.603077E-1,-1.01733044E-1],"categories":[],"categories_nodes":[],"categories_segments":[],"categories_sizes":[],"default_left":[0,0,0,0,0,0,0,0,0,0,0,0,0],"id":3,"left_children":[1,3,5,7,9,11,-1,-1,-1,-1,-1,-1,-1],"loss_changes":[4.1519434E2,1.825951E2,6.491211E0,1.5190582E1,9.927393E0,2.9794582E1,0E0,0E0,0E0,0E0,0E0,0E0,0E0],"parents":[2147483647,0,0,1,1,2,2,3,3,4,4,5,5],"right_children":[2,4,6,8,10,12,-1,-1,-1,-1,-1,-1,-1],"split_conditions":[-3.6087275E0,-1.7725786E0,-1.6114689E0,6.5583265E-1,-2.8221178E0,-2.4566464E0,-1.09481156E-1,2.378536E-1,1.6882224E-2,1.3288479E-1,-1.02637485E-1,1.603077E-1,-1.01733044E-1],"split_indices":[14,10,17,7,12,12,0,0,0,0,0,0,0],"split_type":[0,0,0,0,0,0,0,0,0,0,0,0,0],"sum_hessian":[1.1828781E4,8.086708E1,1.1747914E4,5.3175137E1,2.7691944E1,2.888165E1,1.1719032E4,4.9691147E1,3.483989E0,1.0729954E0,2.661895E1,4.295818E0,2.4585833E1],"tree_param":{"num_deleted":"0","num_feature":"30","num_nodes":"13","size_leaf_vector":"1"}},{"base_weights":[-1.0670366E0,1.0372019E0,-1.0831904E0,1.9060863E0,-8.6785173E-1,-5.608436E-1,-1.08446956E-1,2.018144E-1,1.542894E-2,1.3479084E-1,-1.0112152E-1,1.368638E-1,-1.0012245E-1],"categories":[],"categories_nodes":[],"categories_segments":[],"categories_sizes":[],"default_left":[0,0,0,0,0,0,0,0,0,0,0,0,0],"id":4,"left_children":[1,3,5,7,9,11,-1,-1,-1,-1,-1,-1,-1],"loss_changes":[3.6856738E2,1.3881644E2,6.560547E0,1.0921265E1,9.826321E0,2.5398794E1,0E0,0E0,0E0,0E0,0E0,0E0,0E0],"parents":[2147483647,0,0,1,1,2,2,3,3,4,4,5,5],"right_children":[2,4,6,8,10,12,-1,-1,-1,-1,-1,-1,-1],"split_conditions":[-3.6087275E0,-1.7725786E0,-1.6114689E0,6.5583265E-1,-2.9803019E0,-2.4566464E0,-1.08446956E-1,2.018144E-1,1.542894E-2,1.3479084E-1,-1.0112152E-1,1.368638E-1,-1.0012245E-1],"split_indices":[14,10,17,7,12,12,0,0,0,0,0,0,0],"split_type":[0,0,0,0,0,0,0,0,0,0,0,0,0],"sum_hessian":[1.0808918E4,8.1863884E1,1.0727054E4,5.6221176E1,2.5642708E1,2.7278551E1,1.0699775E4,5.2698177E1,3.5229988E0,1.0477118E0,2.4594995E1,4.6773596E0,2.2601192E1],"tree_param":{"num_deleted":"0","num_feature":"30","num_nodes":"13","size_leaf_vector":"1"}},{"base_weights":[-1.057158E0,9.3678606E-1,-1.0738657E0,1.670332E0,-8.440126E-1,-5.36209E-1,-1.0752298E-1,1.7663059E-1,1.410932E-2,1.2166893E-1,-9.957374E-2,1.18634835E-1,-9.856286E-2],"categories":[],"categories_nodes":[],"categories_segments":[],"categories_sizes":[],"default_left":[0,0,0,0,0,0,0,0,0,0,0,0,0],"id":5,"left_children":[1,3,5,7,9,11,-1,-1,-1,-1,-1,-1,-1],"loss_changes":[3.297744E2,1.092306E2,6.6015625E0,8.379883E0,8.94816E0,2.188907E1,0E0,0E0,0E0,0E0,0E0,0E0,0E0],"parents":[2147483647,0,0,1,1,2,2,3,3,4,4,5,5],"right_children":[2,4,6,8,10,12,-1,-1,-1,-1,-1,-1,-1],"split_conditions":[-3.6087275E0,-1.7725786E0,-1.6114689E0,6.5583265E-1,-2.9803019E0,-2.4566464E0,-1.0752298E-1,1.7663059E-1,1.410932E-2,1.2166893E-1,-9.957374E-2,1.18634835E-1,-9.856286E-2],"split_indices":[14,10,17,7,12,12,0,0,0,0,0,0,0],"split_type":[0,0,0,0,0,0,0,0,0,0,0,0,0],"sum_hessian":[9.867811E3,8.153924E1,9.786271E3,5.779456E1,2.374468E1,2.576451E1,9.760507E3,5.423574E1,3.5588186E0,1.1470171E0,2.2597664E1,4.991833E0,2.0772676E1],"tree_param":{"num_deleted":"0","num_feature":"30","num_nodes":"13","size_leaf_vector":"1"}},{"base_weights":[-1.0482523E0,8.566238E-1,-1.065494E0,1.5340352E0,-7.289958E-1,-5.1282495E-1,-1.0669482E-1,1.6124387E-1,-5.1574547E-2,1.06929384E-1,-9.072911E-2,1.15478575E-1,-9.430764E-2],"categories":[],"categories_nodes":[],"categories_segments":[],"categories_sizes":[],"default_left":[0,0,0,0,0,0,0,0,0,0,0,0,0],"id":6,"left_children":[1,3,5,7,9,11,-1,-1,-1,-1,-1,-1,-1],"loss_changes":[2.965791E2,8.845114E1,6.623047E0,1.0038788E1,8.99097E0,1.9270933E1,0E0,0E0,0E0,0E0,0E0,0E0,0E0],"parents":[2147483647,0,0,1,1,2,2,3,3,4,4,5,5],"right_children":[2,4,6,8,10,12,-1,-1,-1,-1,-1,-1,-1],"split_conditions":[-3.6087275E0,3.9090198E-1,-1.6114689E0,3.413685E-1,-2.210448E0,-1.9428016E0,-1.0669482E-1,1.6124387E-1,-5.1574547E-2,1.06929384E-1,-9.072911E-2,1.15478575E-1,-9.430764E-2],"split_indices":[14,7,17,9,9,16,0,0,0,0,0,0,0],"split_type":[0,0,0,0,0,0,0,0,0,0,0,0,0],"sum_hessian":[9.001376E3,8.0306656E1,8.921069E3,5.6290607E1,2.4016047E1,2.4340887E1,8.896729E3,5.442233E1,1.8682781E0,1.7155595E0,2.2300488E1,4.646715E0,1.9694172E1],"tree_param":{"num_deleted":"0","num_feature":"30","num_nodes":"13","size_leaf_vector":"1"}},{"base_weights":[-1.0401566E0,7.875031E-1,-1.0579414E0,1.3627683E0,-8.03236E-1,-4.8866132E-1,-1.0595013E-1,7.481547E-2,1.5776774E-1,1.043995E-1,-9.6999705E-2,9.541687E-2,-9.566785E-2],"categories":[],"categories_nodes":[],"categories_segments":[],"categories_sizes":[],"default_left":[0,0,0,0,0,0,0,0,0,0,0,0,0],"id":7,"left_children":[1,3,5,7,9,11,-1,-1,-1,-1,-1,-1,-1],"loss_changes":[2.6758105E2,7.399158E1,6.701172E0,6.5961304E0,7.723772E0,1.716386E1,0E0,0E0,0E0,0E0,0E0,0E0,0E0],"parents":[2147483647,0,0,1,1,2,2,3,3,4,4,5,5],"right_children":[2,4,6,8,10,12,-1,-1,-1,-1,-1,-1,-1],"split_conditions":[-3.6087275E0,-1.7725786E0,-1.6114689E0,-2.6084098E-1,-2.9803019E0,-2.4566464E0,-1.0595013E-1,7.481547E-2,1.5776774E-1,1.043995E-1,-9.6999705E-2,9.541687E-2,-9.566785E-2],"split_indices":[14,10,17,26,12,12,0,0,0,0,0,0,0],"split_type":[0,0,0,0,0,0,0,0,0,0,0,0,0],"sum_hessian":[8.2055205E3,7.866038E1,8.1268604E3,5.787436E1,2.0786018E1,2.3065996E1,8.103794E3,1.6154816E1,4.1719543E1,1.2855384E0,1.9500479E1,5.3950567E0,1.7670938E1],"tree_param":{"num_deleted":"0","num_feature":"30","num_nodes":"13","size_leaf_vector":"1"}},{"base_weights":[-1.0327637E0,7.294512E-1,-1.0511185E0,1.286035E0,-6.895044E-1,-4.6719396E-1,-1.0527822E-1,1.3505064E-1,-4.8893165E-2,8.865524E-2,-8.773153E-2,9.3481414E-2,-9.109724E-2],"categories":[],"categories_nodes":[],"categories_segments":[],"categories_sizes":[],"default_left":[0,0,0,0,0,0,0,0,0,0,0,0,0],"id":8,"left_children":[1,3,5,7,9,11,-1,-1,-1,-1,-1,-1,-1],"loss_changes":[2.425957E2,6.222092E1,6.6967773E0,7.0835266E0,7.4469852E0,1.5050786E1,0E0,0E0,0E0,0E0,0E0,0E0,0E0],"parents":[2147483647,0,0,1,1,2,2,3,3,4,4,5,5],"right_children":[2,4,6,8,10,12,-1,-1,-1,-1,-1,-1,-1],"split_conditions":[-3.6087275E0,3.9090198E-1,-1.6114689E0,3.413685E-1,-2.210448E0,-1.9428016E0,-1.0527822E-1,1.3505064E-1,-4.8893165E-2,8.865524E-2,-8.773153E-2,9.3481414E-2,-9.109724E-2],"split_indices":[14,7,17,9,9,16,0,0,0,0,0,0,0],"split_type":[0,0,0,0,0,0,0,0,0,0,0,0,0],"sum_hessian":[7.475517E3,7.6661064E1,7.398856E3,5.5130043E1,2.1531023E1,2.1821648E1,7.377034E3,5.3428516E1,1.7015259E0,1.8964125E0,1.9634611E1,4.9805007E0,1.6841146E1],"tree_param":{"num_deleted":"0","num_feature":"30","num_nodes":"13","size_leaf_vector":"1"}},{"base_weights":[-1.0260067E0,6.78292E-1,-1.0449127E0,1.1533308E0,-7.640199E-1,-4.448715E-1,-1.0466979E-1,5.9074044E-2,1.3549909E-1,9.04774E-2,-9.454602E-2,7.873111E-2,-9.283399E-2],"categories":[],"categories_nodes":[],"categories_segments":[],"categories_sizes":[],"default_left":[0,0,0,0,0,0,0,0,0,0,0,0,0],"id":9,"left_children":[1,3,5,7,9,11,-1,-1,-1,-1,-1,-1,-1],"loss_changes":[2.200669E2,5.247198E1,6.7475586E0,5.670952E0,6.6862564E0,1.3665922E1,0E0,0E0,0E0,0E0,0E0,0E0,0E0],"parents":[2147483647,0,0,1,1,2,2,3,3,4,4,5,5],"right_children":[2,4,6,8,10,12,-1,-1,-1,-1,-1,-1,-1],"split_conditions":[-3.6087275E0,-1.7725786E0,-1.6114689E0,-2.6084098E-1,-2.9803019E0,-2.4566464E0,-1.0466979E-1,5.9074044E-2,1.3549909E-1,9.04774E-2,-9.454602E-2,7.873111E-2,-9.283399E-2],"split_indices":[14,10,17,26,12,12,0,0,0,0,0,0,0],"split_type":[0,0,0,0,0,0,0,0,0,0,0,0,0],"sum_hessian":[6.806857E3,7.429812E1,6.732559E3,5.6040894E1,1.8257229E1,2.0713224E1,6.7118457E3,1.5824148E1,4.0216743E1,1.3994248E0,1.6857803E1,5.659861E0,1.5053364E1],"tree_param":{"num_deleted":"0","num_feature":"30","num_nodes":"13","size_leaf_vector":"1"}},{"base_weights":[-1.0197574E0,6.334667E-1,-1.0392611E0,1.1118972E0,-6.519823E-1,-4.249781E-1,-1.04116715E-1,4.0262543E-2,1.3163772E-1,7.425847E-2,-8.472225E-2,7.063662E-2,-9.132923E-2],"categories":[],"categories_nodes":[],"categories_segments":[],"categories_sizes":[],"default_left":[0,0,0,0,0,0,0,0,0,0,0,0,0],"id":10,"left_children":[1,3,5,7,9,11,-1,-1,-1,-1,-1,-1,-1],"loss_changes":[2.0045068E2,4.5538765E1,6.727539E0,7.2253113E0,6.182189E0,1.204481E1,0E0,0E0,0E0,0E0,0E0,0E0,0E0],"parents":[2147483647,0,0,1,1,2,2,3,3,4,4,5,5],"right_children":[2,4,6,8,10,12,-1,-1,-1,-1,-1,-1,-1],"split_conditions":[-3.6087275E0,3.9090198E-1,-1.6114689E0,3.5299E4,-2.210448E0,-2.4566464E0,-1.04116715E-1,4.0262543E-2,1.3163772E-1,7.425847E-2,-8.472225E-2,7.063662E-2,-9.132923E-2],"split_indices":[14,7,17,0,9,12,0,0,0,0,0,0,0],"split_type":[0,0,0,0,0,0,0,0,0,0,0,0,0],"sum_hessian":[6.195256E3,7.186823E1,6.123387E3,5.2473255E1,1.939498E1,1.9634737E1,6.103753E3,1.2406908E1,4.006635E1,2.0375652E0,1.7357414E1,5.785089E0,1.3849648E1],"tree_param":{"num_deleted":"0","num_feature":"30","num_nodes":"13","size_leaf_vector":"1"}},{"base_weights":[-1.0139275E0,5.916934E-1,-1.0340816E0,1.0013633E0,-7.297693E-1,-4.057836E-1,-1.0361183E-1,1.1254194E-1,1.4868465E-2,7.945288E-2,-9.2369586E-2,7.212295E-2,-8.6519614E-2],"categories":[],"categories_nodes":[],"categories_segments":[],"categories_sizes":[],"default_left":[0,0,0,0,0,0,0,0,0,0,0,0,0],"id":11,"left_children":[1,3,5,7,9,11,-1,-1,-1,-1,-1,-1,-1],"loss_changes":[1.8304443E2,3.8909523E1,6.7041016E0,5.571827E0,5.8382635E0,1.079028E1,0E0,0E0,0E0,0E0,0E0,0E0,0E0],"parents":[2147483647,0,0,1,1,2,2,3,3,4,4,5,5],"right_children":[2,4,6,8,10,12,-1,-1,-1,-1,-1,-1,-1],"split_conditions":[-3.6087275E0,-1.7725786E0,-1.6114689E0,1.5592916E0,-2.9803019E0,-1.9428016E0,-1.0361183E-1,1.1254194E-1,1.4868465E-2,7.945288E-2,-9.2369586E-2,7.212295E-2,-8.6519614E-2],"split_indices":[14,10,17,27,12,16,0,0,0,0,0,0,0],"split_type":[0,0,0,0,0,0,0,0,0,0,0,0,0],"sum_hessian":[5.636611E3,6.9523346E1,5.5670874E3,5.325566E1,1.6267685E1,1.8634964E1,5.5484526E3,4.6212368E1,7.043294E0,1.486496E0,1.4781188E1,5.231458E0,1.3403506E1],"tree_param":{"num_deleted":"0","num_feature":"30","num_nodes":"13","size_leaf_vector":"1"}},{"base_weights":[-1.0084784E0,5.5323356E-1,-1.0292985E0,9.7416514E-1,-6.192174E-1,-3.8567153E-1,-1.0314875E-1,3.5237275E-2,1.2129404E-1,6.383823E-2,-8.208616E-2,5.964985E-2,-8.843867E-2],"categories":[],"categories_nodes":[],"categories_segments":[],"categories_sizes":[],"default_left":[0,0,0,0,0,0,0,0,0,0,0,0,0],"id":12,"left_children":[1,3,5,7,9,11,-1,-1,-1,-1,-1,-1,-1],"loss_changes":[1.6729736E2,3.4217827E1,6.7319336E0,7.071289E0,5.2419677E0,9.711386E0,0E0,0E0,0E0,0E0,0E0,0E0,0E0],"parents":[2147483647,0,0,1,1,2,2,3,3,4,4,5,5],"right_children":[2,4,6,8,10,12,-1,-1,-1,-1,-1,-1,-1],"split_conditions":[-3.6087275E0,3.9090198E-1,-1.6114689E0,-2.6084098E-1,-2.210448E0,-2.4566464E0,-1.0314875E-1,3.5237275E-2,1.2129404E-1,6.383823E-2,-8.208616E-2,5.964985E-2,-8.843867E-2],"split_indices":[14,7,17,26,9,12,0,0,0,0,0,0,0],"split_type":[0,0,0,0,0,0,0,0,0,0,0,0,0],"sum_hessian":[5.126706E3,6.711172E1,5.059594E3,4.9506935E1,1.7604784E1,1.7749325E1,5.041845E3,1.4423243E1,3.508369E1,2.1334093E0,1.5471375E1,5.911379E0,1.1837946E1],"tree_param":{"num_deleted":"0","num_feature":"30","num_nodes":"13","size_leaf_vector":"1"}},{"base_weights":[-1.0033604E0,5.1972073E-1,-1.0248755E0,8.9393663E-1,-6.4697033E-1,-3.6778316E-1,-1.0272181E-1,9.706636E-2,-6.472438E-2,4.8262466E-2,-9.139078E-2,6.0981255E-2,-8.3108425E-2],"categories":[],"categories_nodes":[],"categories_segments":[],"categories_sizes":[],"default_left":[0,0,0,0,0,0,0,0,0,0,0,0,0],"id":13,"left_children":[1,3,5,7,9,11,-1,-1,-1,-1,-1,-1,-1],"loss_changes":[1.5332129E2,2.9223087E1,6.699707E0,6.552086E0,5.420467E0,8.61028E0,0E0,0E0,0E0,0E0,0E0,0E0,0E0],"parents":[2147483647,0,0,1,1,2,2,3,3,4,4,5,5],"right_children":[2,4,6,8,10,12,-1,-1,-1,-1,-1,-1,-1],"split_conditions":[-3.6087275E0,5.3136986E-1,-1.6114689E0,3.413685E-1,-2.3626347E0,-1.9428016E0,-1.0272181E-1,9.706636E-2,-6.472438E-2,4.8262466E-2,-9.139078E-2,6.0981255E-2,-8.3108425E-2],"split_indices":[14,7,17,9,12,16,0,0,0,0,0,0,0],"split_type":[0,0,0,0,0,0,0,0,0,0,0,0,0],"sum_hessian":[4.6615537E3,6.46095E1,4.596944E3,4.909581E1,1.5513686E1,1.6891579E1,4.5800522E3,4.712014E1,1.975671E0,2.8108888E0,1.2702798E1,5.3295803E0,1.1561998E1],"tree_param":{"num_deleted":"0","num_feature":"30","num_nodes":"13","size_leaf_vector":"1"}},{"base_weights":[-9.985644E-1,4.874626E-1,-1.0207379E0,8.2709134E-1,-6.808757E-1,-3.4902728E-1,-1.02325894E-1,9.5901474E-2,-2.5262975E-3,6.431015E-2,-8.908441E-2,5.0930757E-2,-8.546381E-2],"categories":[],"categories_nodes":[],"categories_segments":[],"categories_sizes":[],"default_left":[0,0,0,0,0,0,0,0,0,0,0,0,0],"id":14,"left_children":[1,3,5,7,9,11,-1,-1,-1,-1,-1,-1,-1],"loss_changes":[1.4015967E2,2.555835E1,6.715332E0,5.562851E0,4.6693196E0,7.8712626E0,0E0,0E0,0E0,0E0,0E0,0E0,0E0],"parents":[2147483647,0,0,1,1,2,2,3,3,4,4,5,5],"right_children":[2,4,6,8,10,12,-1,-1,-1,-1,-1,-1,-1],"split_conditions":[-3.6087275E0,-1.7725786E0,-1.6114689E0,1.5592916E0,-2.9803019E0,-2.4566464E0,-1.02325894E-1,9.5901474E-2,-2.5262975E-3,6.431015E-2,-8.908441E-2,5.0930757E-2,-8.546381E-2],"split_indices":[14,10,17,27,12,12,0,0,0,0,0,0,0],"split_type":[0,0,0,0,0,0,0,0,0,0,0,0,0],"sum_hessian":[4.237554E3,6.1991737E1,4.1755625E3,4.8256073E1,1.3735663E1,1.6134274E1,4.159428E3,4.1679916E1,6.576157E0,1.5977898E0,1.2137875E1,5.978219E0,1.01560545E1],"tree_param":{"num_deleted":"0","num_feature":"30","num_nodes":"13","size_leaf_vector":"1"}},{"base_weights":[-9.938991E-1,4.5648834E-1,-1.0168611E0,7.740614E-1,-6.959225E-1,-3.3238843E-1,-1.0195638E-1,1.8508444E-2,1.0301918E-1,-8.751901E-2,7.4589066E-2,4.6260487E-2,-8.3821855E-2],"categories":[],"categories_nodes":[],"categories_segments":[],"categories_sizes":[],"default_left":[0,0,0,0,0,0,0,0,0,0,0,0,0],"id":15,"left_children":[1,3,5,7,9,11,-1,-1,-1,-1,-1,-1,-1],"loss_changes":[1.2877368E2,2.276579E1,6.67749E0,7.06341E0,4.180259E0,6.9832172E0,0E0,0E0,0E0,0E0,0E0,0E0,0E0],"parents":[2147483647,0,0,1,1,2,2,3,3,4,4,5,5],"right_children":[2,4,6,8,10,12,-1,-1,-1,-1,-1,-1,-1],"split_conditions":[-3.6087275E0,7.6721495E-1,-1.6114689E0,-2.6084098E-1,4.935912E-1,-2.4566464E0,-1.0195638E-1,1.8508444E-2,1.0301918E-1,-8.751901E-2,7.4589066E-2,4.6260487E-2,-8.3821855E-2],"split_indices":[14,7,17,26,26,12,0,0,0,0,0,0,0],"split_type":[0,0,0,0,0,0,0,0,0,0,0,0,0],"sum_hessian":[3.851694E3,5.9733994E1,3.7919602E3,4.7086536E1,1.2647457E1,1.5401233E1,3.7765588E3,1.4792802E1,3.2293736E1,1.159837E1,1.0490878E0,6.022057E0,9.379175E0],"tree_param":{"num_deleted":"0","num_feature":"30","num_nodes":"13","size_leaf_vector":"1"}},{"base_weights":[-9.893708E-1,4.2857414E-1,-1.01319E0,7.3077923E-1,-6.491881E-1,-3.1632724E-1,-1.01609044E-1,1.0415403E-1,3.0354748E-2,5.7138063E-2,-8.6839296E-2,-8.788161E-2,3.7799608E-2],"categories":[],"categories_nodes":[],"categories_segments":[],"categories_sizes":[],"default_left":[0,0,0,0,0,0,0,0,0,0,0,0,0],"id":16,"left_children":[1,3,5,7,9,11,-1,-1,-1,-1,-1,-1,-1],"loss_changes":[1.1869629E2,1.9544836E1,6.6396484E0,5.8175774E0,4.0685554E0,6.4742885E0,0E0,0E0,0E0,0E0,0E0,0E0,0E0],"parents":[2147483647,0,0,1,1,2,2,3,3,4,4,5,5],"right_children":[2,4,6,8,10,12,-1,-1,-1,-1,-1,-1,-1],"split_conditions":[-3.6087275E0,-1.7725786E0,-1.6114689E0,2.8177124E-1,-2.9803019E0,1.4375882E0,-1.01609044E-1,1.0415403E-1,3.0354748E-2,5.7138063E-2,-8.6839296E-2,-8.788161E-2,3.7799608E-2],"split_indices":[14,10,17,28,12,4,0,0,0,0,0,0,0],"split_type":[0,0,0,0,0,0,0,0,0,0,0,0,0],"sum_hessian":[3.5005437E3,5.755117E1,3.4429927E3,4.519923E1,1.2351939E1,1.47268305E1,3.4282656E3,2.5333902E1,1.9865328E1,1.6359718E0,1.0715967E1,7.989013E0,6.7378173E0],"tree_param":{"num_deleted":"0","num_feature":"30","num_nodes":"13","size_leaf_vector":"1"}},{"base_weights":[-9.848365E-1,4.0118223E-1,-1.0096048E0,7.2641E-1,-5.462764E-1,-2.963387E-1,-1.0127999E0,-5.99665E-4,9.613874E-2,5.3892978E-2,-7.685361E-2,3.4145027E-2,-9.028529E-2,-1.01640694E-1,-9.214858E-2],"categories":[],"categories_nodes":[],"categories_segments":[],"categories_sizes":[],"default_left":[0,0,0,0,0,0,0,0,0,0,0,0,0,0,0],"id":17,"left_children":[1,3,5,7,9,11,13,-1,-1,-1,-1,-1,-1,-1,-1],"loss_changes":[1.09659424E2,1.783429E1,6.8259277E0,7.3298817E0,4.039841E0,6.2492776E0,8.862305E-2,0E0,0E0,0E0,0E0,0E0,0E0,0E0,0E0],"parents":[2147483647,0,0,1,1,2,2,3,3,4,4,5,5,6,6],"right_children":[2,4,6,8,10,12,14,-1,-1,-1,-1,-1,-1,-1,-1],"split_conditions":[-3.6087275E0,3.9090198E-1,-1.6114689E0,3.5299E4,-2.210448E0,-8.6027277E-1,2.7311897E0,-5.99665E-4,9.613874E-2,5.3892978E-2,-7.685361E-2,3.4145027E-2,-9.028529E-2,-1.01640694E-1,-9.214858E-2],"split_indices":[14,7,17,0,9,12,4,0,0,0,0,0,0,0,0],"split_type":[0,0,0,0,0,0,0,0,0,0,0,0,0,0,0],"sum_hessian":[3.1815435E3,5.5589466E1,3.125954E3,4.155758E1,1.4031885E1,1.4358242E1,3.1115957E3,1.0331031E1,3.1226551E1,2.1431174E0,1.1888767E1,7.2117E0,7.1465425E0,2.983609E3,1.2798674E2],"tree_param":{"num_deleted":"0","num_feature":"30","num_nodes":"15","size_leaf_vector":"1"}},{"base_weights":[-9.804448E-1,3.7583476E-1,-1.0062095E0,6.456333E-1,-6.484651E-1,-2.8180262E-1,-1.0096571E0,6.1361953E-3,9.1611706E-2,-8.387271E-2,6.439009E-2,-6.273645E-2,7.4576944E-2,-1.013621E-1,-9.102875E-2],"categories":[],"categories_nodes":[],"categories_segments":[],"categories_sizes":[],"default_left":[0,0,0,0,0,0,0,0,0,0,0,0,0,0,0],"id":18,"left_children":[1,3,5,7,9,11,13,-1,-1,-1,-1,-1,-1,-1,-1],"loss_changes":[1.01450195E2,1.5521258E1,6.8049316E0,6.8589497E0,3.4642582E0,5.734996E0,1.9018555E-1,0E0,0E0,0E0,0E0,0E0,0E0,0E0,0E0],"parents":[2147483647,0,0,1,1,2,2,3,3,4,4,5,5,6,6],"right_children":[2,4,6,8,10,12,14,-1,-1,-1,-1,-1,-1,-1,-1],"split_conditions":[-3.6087275E0,7.6721495E-1,-1.6114689E0,-2.6084098E-1,4.935912E-1,6.3496935E-1,2.7311897E0,6.1361953E-3,9.1611706E-2,-8.387271E-2,6.439009E-2,-6.273645E-2,7.4576944E-2,-1.013621E-1,-9.102875E-2],"split_indices":[14,7,17,26,26,21,4,0,0,0,0,0,0,0,0],"split_type":[0,0,0,0,0,0,0,0,0,0,0,0,0,0,0],"sum_hessian":[2.8913833E3,5.3649315E1,2.8377341E3,4.2756912E1,1.08924E1,1.3833226E1,2.823901E3,1.3918487E1,2.8838427E1,9.800574E0,1.0918255E0,1.0643422E1,3.189804E0,2.7067283E3,1.1717246E2],"tree_param":{"num_deleted":"0","num_feature":"30","num_nodes":"15","size_leaf_vector":"1"}},{"base_weights":[-9.760327E-1,3.5227254E-1,-1.002857E0,6.156643E-1,-6.128655E-1,-2.6163718E-1,-1.0066274E0,9.4188444E-2,1.8402848E-2,4.947011E-2,-8.409198E-2,-8.388173E-2,3.8088378E-2,-1.0109859E-1,-8.985365E-2],"categories":[],"categories_nodes":[],"categories_segments":[],"categories_sizes":[],"default_left":[0,0,0,0,0,0,0,0,0,0,0,0,0,0,0],"id":19,"left_children":[1,3,5,7,9,11,13,-1,-1,-1,-1,-1,-1,-1,-1],"loss_changes":[9.401709E1,1.3793177E1,6.9387207E0,5.7348385E0,3.4005127E0,5.65729E0,2.993164E-1,0E0,0E0,0E0,0E0,0E0,0E0,0E0,0E0],"parents":[2147483647,0,0,1,1,2,2,3,3,4,4,5,5,6,6],"right_children":[2,4,6,8,10,12,14,-1,-1,-1,-1,-1,-1,-1,-1],"split_conditions":[-3.6087275E0,-1.7725786E0,-1.6114689E0,2.8177124E-1,-2.9803019E0,1.4375882E0,2.7311897E0,9.4188444E-2,1.8402848E-2,4.947011E-2,-8.409198E-2,-8.388173E-2,3.8088378E-2,-1.0109859E-1,-8.985365E-2],"split_indices":[14,10,17,28,12,4,4,0,0,0,0,0,0,0,0],"split_type":[0,0,0,0,0,0,0,0,0,0,0,0,0,0,0],"sum_hessian":[2.6277332E3,5.1774837E1,2.5759585E3,4.095899E1,1.0815848E1,1.3393403E1,2.562565E3,2.2654858E1,1.8304132E1,1.6471388E0,9.168709E0,6.894514E0,6.498889E0,2.4552131E3,1.07351845E2],"tree_param":{"num_deleted":"0","num_feature":"30","num_nodes":"15","size_leaf_vector":"1"}},{"base_weights":[-9.715316E-1,3.2910842E-1,-9.995332E-1,-5.4270065E-1,6.101672E-1,-2.4488556E-1,-1.0036787E0,5.028826E-2,-9.1373354E-2,-2.7802378E-2,7.939027E-2,3.3134814E-2,-8.780149E-2,-1.0084728E-1,-8.861742E-2],"categories":[],"categories_nodes":[],"categories_segments":[],"categories_sizes":[],"default_left":[0,0,0,0,0,0,0,0,0,0,0,0,0,0,0],"id":20,"left_children":[1,3,5,7,9,11,13,-1,-1,-1,-1,-1,-1,-1,-1],"loss_changes":[8.7353516E1,1.285493E1,7.07251E0,5.4988174E0,6.6050615E0,5.436264E0,4.1674805E-1,0E0,0E0,0E0,0E0,0E0,0E0,0E0,0E0],"parents":[2147483647,0,0,1,1,2,2,3,3,4,4,5,5,6,6],"right_children":[2,4,6,8,10,12,14,-1,-1,-1,-1,-1,-1,-1,-1],"split_conditions":[-3.6087275E0,1.7149192E0,-1.6114689E0,-2.7243354E0,2.5449E4,-8.6027277E-1,2.7311897E0,5.028826E-2,-9.1373354E-2,-2.7802378E-2,7.939027E-2,3.3134814E-2,-8.780149E-2,-1.0084728E-1,-8.861742E-2],"split_indices":[14,4,17,10,0,12,4,0,0,0,0,0,0,0,0],"split_type":[0,0,0,0,0,0,0,0,0,0,0,0,0,0,0],"sum_hessian":[2.3884795E3,5.011134E1,2.3383682E3,1.1989744E1,3.8121593E1,1.3103361E1,2.325265E3,3.047219E0,8.942525E0,6.4463396E0,3.1675255E1,7.109448E0,5.9939127E0,2.2268281E3,9.843668E1],"tree_param":{"num_deleted":"0","num_feature":"30","num_nodes":"15","size_leaf_vector":"1"}},{"base_weights":[-9.6709377E-1,3.064884E-1,-9.963073E-1,5.4413646E-1,-6.147488E-1,-2.329441E-1,-1.0007803E0,-2.4651787E-3,8.21092E-2,-8.084259E-2,5.3367265E-2,-8.077993E-2,3.596054E-2,-1.0060554E-1,-8.7314665E-2],"categories":[],"categories_nodes":[],"categories_segments":[],"categories_sizes":[],"default_left":[0,0,0,0,0,0,0,0,0,0,0,0,0,0,0],"id":21,"left_children":[1,3,5,7,9,11,13,-1,-1,-1,-1,-1,-1,-1,-1],"loss_changes":[8.111682E1,1.1164824E1,7.0178223E0,6.298603E0,2.7922325E0,4.94831E0,5.427246E-1,0E0,0E0,0E0,0E0,0E0,0E0,0E0,0E0],"parents":[2147483647,0,0,1,1,2,2,3,3,4,4,5,5,6,6],"right_children":[2,4,6,8,10,12,14,-1,-1,-1,-1,-1,-1,-1,-1],"split_conditions":[-3.6087275E0,7.6721495E-1,-1.6114689E0,-2.6084098E-1,4.935912E-1,1.4375882E0,2.7311897E0,-2.4651787E-3,8.21092E-2,-8.084259E-2,5.3367265E-2,-8.077993E-2,3.596054E-2,-1.0060554E-1,-8.7314665E-2],"split_indices":[14,7,17,26,26,4,4,0,0,0,0,0,0,0,0],"split_type":[0,0,0,0,0,0,0,0,0,0,0,0,0,0,0],"sum_hessian":[2.1710073E3,4.8469265E1,2.122538E3,3.8855263E1,9.614002E0,1.267413E1,2.109864E3,1.3022245E1,2.5833015E1,8.479945E0,1.1340576E0,6.2487326E0,6.4253974E0,2.019518E3,9.034601E1],"tree_param":{"num_deleted":"0","num_feature":"30","num_nodes":"15","size_leaf_vector":"1"}},{"base_weights":[-9.62464E-1,2.864805E-1,-9.9298924E-1,-5.238338E-1,5.3712744E-1,-2.1801452E-1,-9.979029E-1,4.496666E-2,-8.871059E-2,-3.0169306E-2,7.1933724E-2,3.1343944E-2,-8.6094245E-2,-1.0037078E-1,-8.594045E-2],"categories":[],"categories_nodes":[],"categories_segments":[],"categories_sizes":[],"default_left":[0,0,0,0,0,0,0,0,0,0,0,0,0,0,0],"id":22,"left_children":[1,3,5,7,9,11,13,-1,-1,-1,-1,-1,-1,-1,-1],"loss_changes":[7.5569214E1,1.0007635E1,7.123657E0,4.5788736E0,5.8826523E0,4.857305E0,6.7736816E-1,0E0,0E0,0E0,0E0,0E0,0E0,0E0,0E0],"parents":[2147483647,0,0,1,1,2,2,3,3,4,4,5,5,6,6],"right_children":[2,4,6,8,10,12,14,-1,-1,-1,-1,-1,-1,-1,-1],"split_conditions":[-3.6087275E0,1.7149192E0,-1.6114689E0,-2.7243354E0,2.5449E4,-8.6027277E-1,2.7311897E0,4.496666E-2,-8.871059E-2,-3.0169306E-2,7.1933724E-2,3.1343944E-2,-8.6094245E-2,-1.0037078E-1,-8.594045E-2],"split_indices":[14,4,17,10,0,12,4,0,0,0,0,0,0,0,0],"split_type":[0,0,0,0,0,0,0,0,0,0,0,0,0,0,0],"sum_hessian":[1.9737164E3,4.68884E1,1.9268281E3,1.0819667E1,3.6068733E1,1.2425906E1,1.9144022E3,2.875649E0,7.944018E0,6.319688E0,2.9749044E1,7.0832586E0,5.3426476E0,1.8313966E3,8.300561E1],"tree_param":{"num_deleted":"0","num_feature":"30","num_nodes":"15","size_leaf_vector":"1"}},{"base_weights":[-9.5777434E-1,2.6587573E-1,-9.897144E-1,4.8712873E-1,-5.683965E-1,-2.0753607E-1,-9.9501765E-1,8.4331684E-2,3.609961E-3,-8.4516264E-2,4.1015428E-2,2.8422771E-2,-8.479091E-2,-1.0014061E-1,-8.449042E-2],"categories":[],"categories_nodes":[],"categories_segments":[],"categories_sizes":[],"default_left":[0,0,0,0,0,0,0,0,0,0,0,0,0,0,0],"id":23,"left_children":[1,3,5,7,9,11,13,-1,-1,-1,-1,-1,-1,-1,-1],"loss_changes":[7.044153E1,8.853672E0,7.0529785E0,5.956053E0,3.1094527E0,4.3505154E0,8.208008E-1,0E0,0E0,0E0,0E0,0E0,0E0,0E0,0E0],"parents":[2147483647,0,0,1,1,2,2,3,3,4,4,5,5,6,6],"right_children":[2,4,6,8,10,12,14,-1,-1,-1,-1,-1,-1,-1,-1],"split_conditions":[-3.6087275E0,-1.7725786E0,-1.6114689E0,2.8177124E-1,-8.939093E-2,-8.6027277E-1,2.7311897E0,8.4331684E-2,3.609961E-3,-8.4516264E-2,4.1015428E-2,2.8422771E-2,-8.479091E-2,-1.0014061E-1,-8.449042E-2],"split_indices":[14,10,17,28,21,12,4,0,0,0,0,0,0,0,0],"split_type":[0,0,0,0,0,0,0,0,0,0,0,0,0,0,0],"sum_hessian":[1.7945984E3,4.54652E1,1.7491332E3,3.626393E1,9.201265E0,1.2049721E1,1.7370835E3,1.9776339E1,1.6487595E1,7.278874E0,1.9223914E0,7.1302876E0,4.919433E0,1.660736E3,7.634751E1],"tree_param":{"num_deleted":"0","num_feature":"30","num_nodes":"15","size_leaf_vector":"1"}},{"base_weights":[-9.528097E-1,2.4692838E-1,-9.8636776E-1,4.5729128E-1,-5.837228E-1,-1.9762656E-1,-9.9209607E-1,9.187262E-2,9.338537E-3,4.715392E-2,-7.822561E-2,-7.7630274E-2,3.540082E-2,-9.9912666E-2,-8.296087E-2],"categories":[],"categories_nodes":[],"categories_segments":[],"categories_sizes":[],"default_left":[0,0,0,0,0,0,0,0,0,0,0,0,0,0,0],"id":24,"left_children":[1,3,5,7,9,11,13,-1,-1,-1,-1,-1,-1,-1,-1],"loss_changes":[6.599805E1,8.1720085E0,6.9831543E0,6.069857E0,2.3761408E0,4.3306727E0,9.7302246E-1,0E0,0E0,0E0,0E0,0E0,0E0,0E0,0E0],"parents":[2147483647,0,0,1,1,2,2,3,3,4,4,5,5,6,6],"right_children":[2,4,6,8,10,12,14,-1,-1,-1,-1,-1,-1,-1,-1],"split_conditions":[-3.6087275E0,7.6721495E-1,-1.6114689E0,6.6752005E-1,-1.7806709E0,1.4375882E0,2.7311897E0,9.187262E-2,9.338537E-3,4.715392E-2,-7.822561E-2,-7.7630274E-2,3.540082E-2,-9.9912666E-2,-8.296087E-2],"split_indices":[14,7,17,8,16,4,4,0,0,0,0,0,0,0,0],"split_type":[0,0,0,0,0,0,0,0,0,0,0,0,0,0,0],"sum_hessian":[1.6322094E3,4.4239555E1,1.5879698E3,3.5658497E1,8.581058E0,1.1705603E1,1.5762643E3,1.5050169E1,2.060833E1,1.141032E0,7.4400253E0,5.5140133E0,6.1915894E0,1.5059546E3,7.030963E1],"tree_param":{"num_deleted":"0","num_feature":"30","num_nodes":"15","size_leaf_vector":"1"}},{"base_weights":[-9.473925E-1,2.2866787E-1,-9.828277E-1,-5.319381E-1,4.5461765E-1,-1.850764E-1,-9.8910993E-1,3.410425E-2,-8.950888E-2,-1.6130393E-2,7.165559E-2,-9.120267E-2,2.3679806E-2,-9.968466E-2,-8.134883E-2],"categories":[],"categories_nodes":[],"categories_segments":[],"categories_sizes":[],"default_left":[0,0,0,0,0,0,0,0,0,0,0,0,0,0,0],"id":25,"left_children":[1,3,5,7,9,11,13,-1,-1,-1,-1,-1,-1,-1,-1],"loss_changes":[6.2161743E1,7.8521E0,7.048462E0,3.6665697E0,5.710533E0,4.0508585E0,1.1339111E0,0E0,0E0,0E0,0E0,0E0,0E0,0E0,0E0],"parents":[2147483647,0,0,1,1,2,2,3,3,4,4,5,5,6,6],"right_children":[2,4,6,8,10,12,14,-1,-1,-1,-1,-1,-1,-1,-1],"split_conditions":[-3.6087275E0,1.7149192E0,-1.6114689E0,-3.3472848E-1,-2.6084098E-1,1.089E1,2.7311897E0,3.410425E-2,-8.950888E-2,-1.6130393E-2,7.165559E-2,-9.120267E-2,2.3679806E-2,-9.968466E-2,-8.134883E-2],"split_indices":[14,4,17,5,26,29,4,0,0,0,0,0,0,0,0],"split_type":[0,0,0,0,0,0,0,0,0,0,0,0,0,0,0],"sum_hessian":[1.4852292E3,4.328213E1,1.4419471E3,9.602702E0,3.3679432E1,1.1504469E1,1.4304426E3,2.8389678E0,6.7637343E0,1.0163997E1,2.3515434E1,3.798046E0,7.7064223E0,1.3656074E3,6.483525E1],"tree_param":{"num_deleted":"0","num_feature":"30","num_nodes":"15","size_leaf_vector":"1"}},{"base_weights":[-9.4183886E-1,2.1125305E-1,-9.791063E-1,4.1060993E-1,-5.4708046E-1,-1.7427883E-1,-9.8603094E-1,7.043692E-2,-1.5932003E-2,-8.260689E-2,3.4984108E-2,2.8072415E-2,-8.27687E-2,-9.945432E-2,-7.9652205E-2],"categories":[],"categories_nodes":[],"categories_segments":[],"categories_sizes":[],"default_left":[0,0,0,0,0,0,0,0,0,0,0,0,0,0,0],"id":26,"left_children":[1,3,5,7,9,11,13,-1,-1,-1,-1,-1,-1,-1,-1],"loss_changes":[5.834131E1,6.7519712E0,7.1325684E0,5.931766E0,2.6452875E0,3.9174423E0,1.3037109E0,0E0,0E0,0E0,0E0,0E0,0E0,0E0,0E0],"parents":[2147483647,0,0,1,1,2,2,3,3,4,4,5,5,6,6],"right_children":[2,4,6,8,10,12,14,-1,-1,-1,-1,-1,-1,-1,-1],"split_conditions":[-3.6087275E0,-1.7725786E0,-1.6114689E0,8.4708875E-1,-8.939093E-2,-8.6027277E-1,2.7311897E0,7.043692E-2,-1.5932003E-2,-8.260689E-2,3.4984108E-2,2.8072415E-2,-8.27687E-2,-9.945432E-2,-7.9652205E-2],"split_indices":[14,10,17,27,21,12,4,0,0,0,0,0,0,0,0],"split_type":[0,0,0,0,0,0,0,0,0,0,0,0,0,0,0],"sum_hessian":[1.3518176E3,4.2176197E1,1.3096414E3,3.375971E1,8.41649E0,1.13950815E1,1.2982463E3,2.212165E1,1.1638059E1,6.479904E0,1.9365858E0,7.053632E0,4.34145E0,1.2383737E3,5.987264E1],"tree_param":{"num_deleted":"0","num_feature":"30","num_nodes":"15","size_leaf_vector":"1"}},{"base_weights":[-9.3607897E-1,1.9497523E-1,-9.753581E-1,-6.436286E-2,8.1934446E-1,-1.6639334E-1,-9.8283064E-1,2.5479695E-2,-2.2592437E-1,1.0690695E-1,-6.0236104E-2,-7.32578E-2,3.339275E-2,-9.921942E-2,-7.786982E-2],"categories":[],"categories_nodes":[],"categories_segments":[],"categories_sizes":[],"default_left":[0,0,0,0,0,0,0,0,0,0,0,0,0,0,0],"id":27,"left_children":[1,3,5,7,9,11,13,-1,-1,-1,-1,-1,-1,-1,-1],"loss_changes":[5.4910522E1,6.8813415E0,7.033081E0,2.209774E1,5.0637617E0,3.672305E0,1.4816895E0,0E0,0E0,0E0,0E0,0E0,0E0,0E0,0E0],"parents":[2147483647,0,0,1,1,2,2,3,3,4,4,5,5,6,6],"right_children":[2,4,6,8,10,12,14,-1,-1,-1,-1,-1,-1,-1,-1],"split_conditions":[-3.6087275E0,9.107E1,-1.6114689E0,8.885E1,-1.0008147E0,1.4375882E0,2.7311897E0,2.5479695E-2,-2.2592437E-1,1.0690695E-1,-6.0236104E-2,-7.32578E-2,3.339275E-2,-9.921942E-2,-7.786982E-2],"split_indices":[14,29,17,29,16,4,4,0,0,0,0,0,0,0,0],"split_type":[0,0,0,0,0,0,0,0,0,0,0,0,0,0,0],"sum_hessian":[1.2306964E3,4.117201E1,1.1895244E3,2.9723124E1,1.1448885E1,1.1100222E1,1.1784242E3,2.6721445E1,3.0016787E0,9.949309E0,1.4995764E0,4.989581E0,6.110641E0,1.1230496E3,5.5374638E1],"tree_param":{"num_deleted":"0","num_feature":"30","num_nodes":"15","size_leaf_vector":"1"}},{"base_weights":[-9.297256E-1,4.463221E-2,-9.777024E-1,4.469213E-1,-6.255298E-1,-9.9306434E-1,-8.0952454E-1,1.01699434E-1,6.447264E-3,-9.10597E-2,1.0063346E-2,-9.950846E-2,-1.065085E-2,2.1355815E-2,-8.674227E-2],"categories":[],"categories_nodes":[],"categories_segments":[],"categories_sizes":[],"default_left":[0,0,0,0,0,0,0,0,0,0,0,0,0,0,0],"id":28,"left_children":[1,3,5,7,9,11,13,-1,-1,-1,-1,-1,-1,-1,-1],"loss_changes":[5.250714E1,1.4736585E1,1.9595337E0,7.367382E0,4.3418283E0,1.6414795E0,5.8090134E0,0E0,0E0,0E0,0E0,0E0,0E0,0E0,0E0],"parents":[2147483647,0,0,1,1,2,2,3,3,4,4,5,5,6,6],"right_children":[2,4,6,8,10,12,14,-1,-1,-1,-1,-1,-1,-1,-1],"split_conditions":[-2.65472E0,-2.1871479E0,1.6594491E0,6.6752005E-1,1.8715833E0,2.488966E0,-1.4371505E0,1.01699434E-1,6.447264E-3,-9.10597E-2,1.0063346E-2,-9.950846E-2,-1.065085E-2,2.1355815E-2,-8.674227E-2],"split_indices":[14,12,4,8,4,17,14,0,0,0,0,0,0,0,0],"split_type":[0,0,0,0,0,0,0,0,0,0,0,0,0,0,0],"sum_hessian":[1.1212969E3,5.2624195E1,1.0686727E3,3.30924E1,1.9531797E1,9.747322E2,9.3940544E1,1.2620811E1,2.0471586E1,1.3843373E1,5.688424E0,9.7239404E2,2.3381476E0,4.887526E0,8.905302E1],"tree_param":{"num_deleted":"0","num_feature":"30","num_nodes":"15","size_leaf_vector":"1"}},{"base_weights":[-9.232333E-1,4.152602E-2,-9.7387904E-1,4.1346318E-1,-6.0028607E-1,-9.9076355E-1,-7.925345E-1,8.550243E-2,-6.270714E-3,1.533246E-2,-8.836331E-2,-9.9298604E-2,-9.981727E-3,-1.2949702E-2,-8.898243E-2],"categories":[],"categories_nodes":[],"categories_segments":[],"categories_sizes":[],"default_left":[0,0,0,0,0,0,0,0,0,0,0,0,0,0,0],"id":29,"left_children":[1,3,5,7,9,11,13,-1,-1,-1,-1,-1,-1,-1,-1],"loss_changes":[5.0009277E1,1.2653541E1,2.1900635E0,7.09582E0,4.2939E0,1.6531372E0,5.5462074E0,0E0,0E0,0E0,0E0,0E0,0E0,0E0,0E0],"parents":[2147483647,0,0,1,1,2,2,3,3,4,4,5,5,6,6],"right_children":[2,4,6,8,10,12,14,-1,-1,-1,-1,-1,-1,-1,-1],"split_conditions":[-2.65472E0,-2.1871479E0,1.6594491E0,2.8177124E-1,-1.1837281E-1,2.488966E0,-8.2575727E-1,8.550243E-2,-6.270714E-3,1.533246E-2,-8.836331E-2,-9.9298604E-2,-9.981727E-3,-1.2949702E-2,-8.898243E-2],"split_indices":[14,12,4,28,15,17,14,0,0,0,0,0,0,0,0],"split_type":[0,0,0,0,0,0,0,0,0,0,0,0,0,0,0],"sum_hessian":[1.02167365E3,5.096744E1,9.707062E2,3.249311E1,1.8474329E1,8.839413E2,8.6764915E1,1.6446426E1,1.6046686E1,5.173468E0,1.330086E1,8.816275E2,2.3137388E0,1.1400524E1,7.536439E1],"tree_param":{"num_deleted":"0","num_feature":"30","num_nodes":"15","size_leaf_vector":"1"}},{"base_weights":[-9.1635275E-1,3.8395613E-2,-9.69812E-1,3.5552132E-1,-6.6185844E-1,-9.883678E-1,-7.746986E-1,8.378176E-2,-4.3468713E-3,-9.4309196E-2,-7.532912E-3,-9.908124E-2,-9.352127E-3,-1.1891704E-2,-8.7851845E-2],"categories":[],"categories_nodes":[],"categories_segments":[],"categories_sizes":[],"default_left":[0,0,0,0,0,0,0,0,0,0,0,0,0,0,0],"id":30,"left_children":[1,3,5,7,9,11,13,-1,-1,-1,-1,-1,-1,-1,-1],"loss_changes":[4.762683E1,1.1427847E1,2.4311523E0,6.837202E0,2.578073E0,1.663269E0,5.4312363E0,0E0,0E0,0E0,0E0,0E0,0E0,0E0,0E0],"parents":[2147483647,0,0,1,1,2,2,3,3,4,4,5,5,6,6],"right_children":[2,4,6,8,10,12,14,-1,-1,-1,-1,-1,-1,-1,-1],"split_conditions":[-2.65472E0,-1.7725786E0,1.6594491E0,1.8705562E-1,1.7149192E0,2.488966E0,-8.2575727E-1,8.378176E-2,-4.3468713E-3,-9.4309196E-2,-7.532912E-3,-9.908124E-2,-9.352127E-3,-1.1891704E-2,-8.7851845E-2],"split_indices":[14,10,4,28,4,17,14,0,0,0,0,0,0,0,0],"split_type":[0,0,0,0,0,0,0,0,0,0,0,0,0,0,0],"sum_hessian":[9.313953E2,4.9401295E1,8.81994E2,3.4341347E1,1.5059949E1,8.0168585E2,8.030814E1,1.5049624E1,1.9291721E1,9.768268E0,5.291682E0,7.993948E2,2.2910914E0,1.1269474E1,6.903867E1],"tree_param":{"num_deleted":"0","num_feature":"30","num_nodes":"15","size_leaf_vector":"1"}},{"base_weights":[-9.088413E-1,3.455722E-2,-9.6547395E-1,3.6619392E-1,-5.686049E-1,-9.858553E-1,-7.559988E-1,7.2050855E-2,-2.0276127E-2,-8.817778E-2,1.0687863E-2,-9.885436E-2,-8.760011E-3,2.1696573E-2,-8.262504E-2],"categories":[],"categories_nodes":[],"categories_segments":[],"categories_sizes":[],"default_left":[0,0,0,0,0,0,0,0,0,0,0,0,0,0,0],"id":31,"left_children":[1,3,5,7,9,11,13,-1,-1,-1,-1,-1,-1,-1,-1],"loss_changes":[4.5487976E1,1.0038859E1,2.6814575E0,6.6611733E0,3.8654308E0,1.6717529E0,5.336994E0,0E0,0E0,0E0,0E0,0E0,0E0,0E0,0E0],"parents":[2147483647,0,0,1,1,2,2,3,3,4,4,5,5,6,6],"right_children":[2,4,6,8,10,12,14,-1,-1,-1,-1,-1,-1,-1,-1],"split_conditions":[-2.65472E0,-2.1871479E0,1.6594491E0,8.4708875E-1,1.8715833E0,2.488966E0,-1.4371505E0,7.2050855E-2,-2.0276127E-2,-8.817778E-2,1.0687863E-2,-9.885436E-2,-8.760011E-3,2.1696573E-2,-8.262504E-2],"split_indices":[14,12,4,27,4,17,14,0,0,0,0,0,0,0,0],"split_type":[0,0,0,0,0,0,0,0,0,0,0,0,0,0,0],"sum_hessian":[8.49776E2,4.814566E1,8.016303E2,3.1318617E1,1.6827044E1,7.271723E2,7.445799E1,1.9135616E1,1.21830015E1,1.1288144E1,5.538899E0,7.249023E2,2.27007E0,4.8734655E0,6.9584526E1],"tree_param":{"num_deleted":"0","num_feature":"30","num_nodes":"15","size_leaf_vector":"1"}},{"base_weights":[-9.010606E-1,3.1218074E-2,-9.608365E-1,3.125961E-1,-6.315914E-1,-9.8320353E-1,-7.363734E-1,6.9718525E-2,-1.3506127E-2,3.0552372E-2,-7.8356646E-2,-9.861592E-2,-8.203479E-3,-7.9324255E-3,-8.542537E-2],"categories":[],"categories_nodes":[],"categories_segments":[],"categories_sizes":[],"default_left":[0,0,0,0,0,0,0,0,0,0,0,0,0,0,0],"id":32,"left_children":[1,3,5,7,9,11,13,-1,-1,-1,-1,-1,-1,-1,-1],"loss_changes":[4.3305664E1,9.104581E0,2.9399414E0,5.9814157E0,2.3135653E0,1.678833E0,5.3628654E0,0E0,0E0,0E0,0E0,0E0,0E0,0E0,0E0],"parents":[2147483647,0,0,1,1,2,2,3,3,4,4,5,5,6,6],"right_children":[2,4,6,8,10,12,14,-1,-1,-1,-1,-1,-1,-1,-1],"split_conditions":[-2.65472E0,-1.7725786E0,1.6594491E0,2.8177124E-1,-1.3639656E0,2.488966E0,-8.2575727E-1,6.9718525E-2,-1.3506127E-2,3.0552372E-2,-7.8356646E-2,-9.861592E-2,-8.203479E-3,-7.9324255E-3,-8.542537E-2],"split_indices":[14,10,4,28,9,17,14,0,0,0,0,0,0,0,0],"split_type":[0,0,0,0,0,0,0,0,0,0,0,0,0,0,0],"sum_hessian":[7.755532E2,4.67595E1,7.287937E2,3.319558E1,1.356392E1,6.596787E2,6.911498E1,1.755576E1,1.5639821E1,1.7517638E0,1.1812156E1,6.5742816E2,2.2505527E0,1.0768076E1,5.8346905E1],"tree_param":{"num_deleted":"0","num_feature":"30","num_nodes":"15","size_leaf_vector":"1"}},{"base_weights":[-8.924223E-1,1.9739352E-1,-9.461918E-1,-1.6572957E-1,7.823509E-1,-4.3605807E-1,-9.7050077E-1,2.3802133E-2,-2.0371746E-1,1.041251E-1,-7.690871E-2,-7.690967E-2,2.8314406E-2,-9.8744825E-2,-7.9025745E-2],"categories":[],"categories_nodes":[],"categories_segments":[],"categories_sizes":[],"default_left":[0,0,0,0,0,0,0,0,0,0,0,0,0,0,0],"id":33,"left_children":[1,3,5,7,9,11,13,-1,-1,-1,-1,-1,-1,-1,-1],"loss_changes":[4.1765686E1,7.3918633E0,7.9642944E0,1.7047367E1,6.130783E0,8.021414E0,1.189209E0,0E0,0E0,0E0,0E0,0E0,0E0,0E0,0E0],"parents":[2147483647,0,0,1,1,2,2,3,3,4,4,5,5,6,6],"right_children":[2,4,6,8,10,12,14,-1,-1,-1,-1,-1,-1,-1,-1],"split_conditions":[-1.6114689E0,9.4E1,-1.8031472E0,8.885E1,1.170687E0,1.8715833E0,1.6594491E0,2.3802133E-2,-2.0371746E-1,1.041251E-1,-7.690871E-2,-7.690967E-2,2.8314406E-2,-9.8744825E-2,-7.9025745E-2],"split_indices":[17,29,14,29,16,4,4,0,0,0,0,0,0,0,0],"split_type":[0,0,0,0,0,0,0,0,0,0,0,0,0,0,0],"sum_hessian":[7.085518E2,3.3189316E1,6.753625E2,2.0919704E1,1.2269611E1,3.158008E1,6.437824E2,1.792527E1,2.9944348E0,1.0796729E1,1.4728829E0,2.1537436E1,1.0042645E1,5.8435925E2,5.942315E1],"tree_param":{"num_deleted":"0","num_feature":"30","num_nodes":"15","size_leaf_vector":"1"}},{"base_weights":[-8.838449E-1,2.6684124E-2,-9.5084244E-1,-1.6299492E-1,9.719899E-2,-9.776045E-1,-6.958725E-1,4.5362297E-3,-1.02885306E-1,-9.811844E-2,-1.7596713E-3,-3.894024E-3,-8.2736604E-2],"categories":[],"categories_nodes":[],"categories_segments":[],"categories_sizes":[],"default_left":[0,0,0,0,0,0,0,0,0,0,0,0,0],"id":34,"left_children":[1,3,5,7,-1,9,11,-1,-1,-1,-1,-1,-1],"loss_changes":[3.9588684E1,8.3029E0,3.4419556E0,7.026266E0,0E0,1.8531494E0,5.2246895E0,0E0,0E0,0E0,0E0,0E0,0E0],"parents":[2147483647,0,0,1,1,2,2,3,3,5,5,6,6],"right_children":[2,4,6,8,-1,10,12,-1,-1,-1,-1,-1,-1],"split_conditions":[-2.65472E0,1.6925588E0,1.6594491E0,1.0670996E0,9.719899E-2,2.488966E0,-8.2575727E-1,4.5362297E-3,-1.02885306E-1,-9.811844E-2,-1.7596713E-3,-3.894024E-3,-8.2736604E-2],"split_indices":[14,21,4,27,0,17,14,0,0,0,0,0,0],"split_type":[0,0,0,0,0,0,0,0,0,0,0,0,0],"sum_hessian":[6.475441E2,4.4422516E1,6.031216E2,3.768788E1,6.734636E0,5.432654E2,5.985624E1,3.1141665E1,6.5462165E0,5.412251E2,2.0402784E0,1.0198986E1,4.9657253E1],"tree_param":{"num_deleted":"0","num_feature":"30","num_nodes":"13","size_leaf_vector":"1"}},{"base_weights":[-8.728876E-1,-8.933562E-2,-9.573565E-1,-7.4596083E-1,2.182192E-1,-3.8015708E-1,-9.68832E-1,1.3767721E-2,-8.9463174E-2,7.144352E-2,-9.184438E-3,9.152146E-2,-7.974144E-2,-9.7419366E-2,-4.4346675E-2],"categories":[],"categories_nodes":[],"categories_segments":[],"categories_sizes":[],"default_left":[0,0,0,0,0,0,0,0,0,0,0,0,0,0,0],"id":35,"left_children":[1,3,5,7,9,11,13,-1,-1,-1,-1,-1,-1,-1,-1],"loss_changes":[3.9245453E1,1.2063748E1,3.1841125E0,2.6223936E0,6.359456E0,7.2702827E0,1.0474548E0,0E0,0E0,0E0,0E0,0E0,0E0,0E0,0E0],"parents":[2147483647,0,0,1,1,2,2,3,3,4,4,5,5,6,6],"right_children":[2,4,6,8,10,12,14,-1,-1,-1,-1,-1,-1,-1,-1],"split_conditions":[-1.8031472E0,1.1480798E0,-9.8616564E-1,-1.0731785E0,-2.930902E-1,-6.694522E-1,1.1513746E0,1.3767721E-2,-8.9463174E-2,7.144352E-2,-9.184438E-3,9.152146E-2,-7.974144E-2,-9.7419366E-2,-4.4346675E-2],"split_indices":[14,4,20,7,13,12,23,0,0,0,0,0,0,0,0],"split_type":[0,0,0,0,0,0,0,0,0,0,0,0,0,0,0],"sum_hessian":[5.932518E2,5.793077E1,5.35321E2,1.8024105E1,3.9906666E1,1.1100718E1,5.242203E2,2.6064434E0,1.5417662E1,1.4845014E1,2.5061651E1,2.4137733E0,8.686944E0,5.180787E2,6.1415763E0],"tree_param":{"num_deleted":"0","num_feature":"30","num_nodes":"15","size_leaf_vector":"1"}},{"base_weights":[-8.623579E-1,-8.34799E-2,-9.52382E-1,-2.4531364E-1,1.0403305E0,-3.583847E-1,-9.6484405E-1,-6.7066364E-2,8.779281E-3,3.580032E-2,1.1245699E-1,8.0662586E-2,-7.819793E-2,-9.707206E-2,-4.2176537E-2],"categories":[],"categories_nodes":[],"categories_segments":[],"categories_sizes":[],"default_left":[0,0,0,0,0,0,0,0,0,0,0,0,0,0,0],"id":36,"left_children":[1,3,5,7,9,11,13,-1,-1,-1,-1,-1,-1,-1,-1],"loss_changes":[3.809012E1,1.0712002E1,3.2655945E0,7.294483E0,2.4367332E-2,6.3631854E0,1.1136475E0,0E0,0E0,0E0,0E0,0E0,0E0,0E0,0E0],"parents":[2147483647,0,0,1,1,2,2,3,3,4,4,5,5,6,6],"right_children":[2,4,6,8,10,12,14,-1,-1,-1,-1,-1,-1,-1,-1],"split_conditions":[-1.8031472E0,1.6925588E0,-9.8616564E-1,1.7149192E0,-2.663765E-1,-6.694522E-1,1.1513746E0,-6.7066364E-2,8.779281E-3,3.580032E-2,1.1245699E-1,8.0662586E-2,-7.819793E-2,-9.707206E-2,-4.2176537E-2],"split_indices":[14,21,20,4,24,12,23,0,0,0,0,0,0,0,0],"split_type":[0,0,0,0,0,0,0,0,0,0,0,0,0,0,0],"sum_hessian":[5.4336383E2,5.649584E1,4.8686798E2,5.0067596E1,6.4282455E0,1.0616033E1,4.7625195E2,2.1544128E1,2.8523466E1,1.2833236E0,5.144922E0,2.5896065E0,8.026426E0,4.703747E2,5.8772726E0],"tree_param":{"num_deleted":"0","num_feature":"30","num_nodes":"15","size_leaf_vector":"1"}},{"base_weights":[-8.511145E-1,-7.578045E-2,-9.4700897E-1,-7.030593E-1,1.9033225E-1,-3.3755276E-1,-9.605354E-1,1.6288798E-2,-8.696115E-2,1.9216546E-3,1.0523354E-1,1.2511502E-1,-6.300251E-2,-9.787584E-2,-7.113453E-2],"categories":[],"categories_nodes":[],"categories_segments":[],"categories_sizes":[],"default_left":[0,0,0,0,0,0,0,0,0,0,0,0,0,0,0],"id":37,"left_children":[1,3,5,7,9,11,13,-1,-1,-1,-1,-1,-1,-1,-1],"loss_changes":[3.703015E1,9.483839E0,3.3359985E0,2.5786886E0,5.8968716E0,5.984078E0,1.2737732E0,0E0,0E0,0E0,0E0,0E0,0E0,0E0,0E0],"parents":[2147483647,0,0,1,1,2,2,3,3,4,4,5,5,6,6],"right_children":[2,4,6,8,10,12,14,-1,-1,-1,-1,-1,-1,-1,-1],"split_conditions":[-1.8031472E0,1.1480798E0,-9.8616564E-1,-1.0731785E0,1.6925588E0,-1.2719992E0,2.156053E0,1.6288798E-2,-8.696115E-2,1.9216546E-3,1.0523354E-1,1.2511502E-1,-6.300251E-2,-9.787584E-2,-7.113453E-2],"split_indices":[14,4,20,7,21,13,4,0,0,0,0,0,0,0,0],"split_type":[0,0,0,0,0,0,0,0,0,0,0,0,0,0,0],"sum_hessian":[4.980158E2,5.5012703E1,4.430031E2,1.5897432E1,3.9115273E1,1.018219E1,4.3282092E2,2.567959E0,1.33294735E1,3.348957E1,5.6257E0,1.073441E0,9.108749E0,4.005979E2,3.222302E1],"tree_param":{"num_deleted":"0","num_feature":"30","num_nodes":"15","size_leaf_vector":"1"}},{"base_weights":[-8.393108E-1,-6.978265E-2,-9.4118226E-1,-2.1188971E-1,9.8228747E-1,-3.127923E-1,-9.5589435E-1,1.1020271E-1,-3.0346392E-2,2.9277211E-2,1.0835326E-1,7.437953E-2,-7.550421E-2,-9.759247E-2,-6.8994E-2],"categories":[],"categories_nodes":[],"categories_segments":[],"categories_sizes":[],"default_left":[0,0,0,0,0,0,0,0,0,0,0,0,0,0,0],"id":38,"left_children":[1,3,5,7,9,11,13,-1,-1,-1,-1,-1,-1,-1,-1],"loss_changes":[3.582779E1,8.372262E0,3.438324E0,6.2219E0,1.488018E-1,5.5775723E0,1.4283752E0,0E0,0E0,0E0,0E0,0E0,0E0,0E0,0E0],"parents":[2147483647,0,0,1,1,2,2,3,3,4,4,5,5,6,6],"right_children":[2,4,6,8,10,12,14,-1,-1,-1,-1,-1,-1,-1,-1],"split_conditions":[-1.8031472E0,1.6925588E0,-9.8616564E-1,-1.6807752E0,-2.663765E-1,-6.694522E-1,2.156053E0,1.1020271E-1,-3.0346392E-2,2.9277211E-2,1.0835326E-1,7.437953E-2,-7.550421E-2,-9.759247E-2,-6.8994E-2],"split_indices":[14,21,20,15,24,12,4,0,0,0,0,0,0,0,0],"split_type":[0,0,0,0,0,0,0,0,0,0,0,0,0,0,0],"sum_hessian":[4.568658E2,5.360713E1,4.0325867E2,4.7931446E1,5.675683E0,9.734509E0,3.9352417E2,2.4040215E0,4.5527424E1,1.2249631E0,4.45072E0,2.6710966E0,7.063413E0,3.634791E2,3.0045063E1],"tree_param":{"num_deleted":"0","num_feature":"30","num_nodes":"15","size_leaf_vector":"1"}},{"base_weights":[-8.2490516E-1,-5.9240922E-2,-9.349339E-1,-6.761377E-1,1.8613015E-1,-9.7032064E-1,-6.1362207E-1,-8.512318E-2,2.0446269E-2,6.712209E-2,-1.1806107E-2,-9.732337E-2,-1.3370755E-2,5.997966E-3,-8.348444E-2],"categories":[],"categories_nodes":[],"categories_segments":[],"categories_sizes":[],"default_left":[0,0,0,0,0,0,0,0,0,0,0,0,0,0,0],"id":39,"left_children":[1,3,5,7,9,11,13,-1,-1,-1,-1,-1,-1,-1,-1],"loss_changes":[3.543991E1,8.300849E0,3.5925293E0,2.5769749E0,5.896489E0,6.742554E-1,5.9005156E0,0E0,0E0,0E0,0E0,0E0,0E0,0E0,0E0],"parents":[2147483647,0,0,1,1,2,2,3,3,4,4,5,5,6,6],"right_children":[2,4,6,8,10,12,14,-1,-1,-1,-1,-1,-1,-1,-1],"split_conditions":[-1.8031472E0,1.1480798E0,1.6594491E0,2.8608266E-1,-2.930902E-1,1.773103E0,-7.322519E-2,-8.512318E-2,2.0446269E-2,6.712209E-2,-1.1806107E-2,-9.732337E-2,-1.3370755E-2,5.997966E-3,-8.348444E-2],"split_indices":[14,4,4,21,13,22,6,0,0,0,0,0,0,0,0],"split_type":[0,0,0,0,0,0,0,0,0,0,0,0,0,0,0],"sum_hessian":[4.203336E2,5.300723E1,3.6732635E2,1.4584417E1,3.8422813E1,3.290658E2,3.8260563E1,1.2193312E1,2.3911054E0,1.434323E1,2.4079582E1,3.2776126E2,1.3045472E0,9.63914E0,2.8621422E1],"tree_param":{"num_deleted":"0","num_feature":"30","num_nodes":"15","size_leaf_vector":"1"}},{"base_weights":[-8.111828E-1,-5.510798E-2,-9.280537E-1,2.2169825E-1,-5.6322634E-1,-2.3893097E-1,-9.4561684E-1,7.129548E-2,-1.7803384E-2,4.088292E-2,-7.318374E-2,1.2104893E-1,-5.617953E-2,-9.6966915E-2,-6.463889E-2],"categories":[],"categories_nodes":[],"categories_segments":[],"categories_sizes":[],"default_left":[0,0,0,0,0,0,0,0,0,0,0,0,0,0,0],"id":40,"left_children":[1,3,5,7,9,11,13,-1,-1,-1,-1,-1,-1,-1,-1],"loss_changes":[3.4221176E1,7.5779204E0,3.8391418E0,7.003926E0,3.4082875E0,5.212472E0,1.7279663E0,0E0,0E0,0E0,0E0,0E0,0E0,0E0,0E0],"parents":[2147483647,0,0,1,1,2,2,3,3,4,4,5,5,6,6],"right_children":[2,4,6,8,10,12,14,-1,-1,-1,-1,-1,-1,-1,-1],"split_conditions":[-1.8031472E0,3.0402508E-1,-9.8616564E-1,6.6752005E-1,-1.0008147E0,-1.2719992E0,2.156053E0,7.129548E-2,-1.7803384E-2,4.088292E-2,-7.318374E-2,1.2104893E-1,-5.617953E-2,-9.6966915E-2,-6.463889E-2],"split_indices":[14,7,20,8,16,13,4,0,0,0,0,0,0,0,0],"split_type":[0,0,0,0,0,0,0,0,0,0,0,0,0,0,0],"sum_hessian":[3.868579E2,5.1989944E1,3.3486798E2,3.4020424E1,1.7969522E1,8.68537E0,3.2618262E2,1.4911338E1,1.9109085E1,2.4456236E0,1.55239E1,1.0814129E0,7.603958E0,2.9984048E2,2.6342125E1],"tree_param":{"num_deleted":"0","num_feature":"30","num_nodes":"15","size_leaf_vector":"1"}},{"base_weights":[-7.959228E-1,-5.044358E-2,-9.206942E-1,-6.539503E-1,1.7739916E-1,-9.6297294E-1,-5.6148505E-1,-8.29561E-2,1.6288135E-2,-1.7686376E-2,5.504656E-2,-9.664851E-2,-8.167256E-3,9.876829E-2,-6.618888E-2],"categories":[],"categories_nodes":[],"categories_segments":[],"categories_sizes":[],"default_left":[0,0,0,0,0,0,0,0,0,0,0,0,0,0,0],"id":41,"left_children":[1,3,5,7,9,11,13,-1,-1,-1,-1,-1,-1,-1,-1],"loss_changes":[3.3224365E1,7.3133016E0,4.1118774E0,2.2234526E0,5.223151E0,7.651062E-1,6.044696E0,0E0,0E0,0E0,0E0,0E0,0E0,0E0,0E0],"parents":[2147483647,0,0,1,1,2,2,3,3,4,4,5,5,6,6],"right_children":[2,4,6,8,10,12,14,-1,-1,-1,-1,-1,-1,-1,-1],"split_conditions":[-1.8031472E0,1.1480798E0,1.6594491E0,2.8608266E-1,-1.1286649E-1,1.773103E0,-1.8967993E0,-8.29561E-2,1.6288135E-2,-1.7686376E-2,5.504656E-2,-9.664851E-2,-8.167256E-3,9.876829E-2,-6.618888E-2],"split_indices":[14,4,4,21,26,22,8,0,0,0,0,0,0,0,0],"split_type":[0,0,0,0,0,0,0,0,0,0,0,0,0,0,0],"sum_hessian":[3.566953E2,5.1342182E1,3.0535315E2,1.3558482E1,3.7783703E1,2.7169403E2,3.3659126E1,1.1146509E1,2.4119728E0,1.9650017E1,1.8133686E1,2.7051932E2,1.174698E0,1.5108306E0,3.2148293E1],"tree_param":{"num_deleted":"0","num_feature":"30","num_nodes":"15","size_leaf_vector":"1"}},{"base_weights":[-7.8046334E-1,-4.7312677E-2,-9.124501E-1,-1.7966676E-1,9.3329346E-1,-9.5871663E-1,-5.350846E-1,-1.8307321E-3,-9.548869E-2,1.05154805E-1,2.3070602E-2,-9.625631E-2,-7.7618132E-3,1.8353144E-2,-7.967331E-2],"categories":[],"categories_nodes":[],"categories_segments":[],"categories_sizes":[],"default_left":[0,0,0,0,0,0,0,0,0,0,0,0,0,0,0],"id":42,"left_children":[1,3,5,7,9,11,13,-1,-1,-1,-1,-1,-1,-1,-1],"loss_changes":[3.1901505E1,6.8411717E0,4.3704834E0,5.754442E0,2.7885342E-1,7.654114E-1,6.315442E0,0E0,0E0,0E0,0E0,0E0,0E0,0E0,0E0],"parents":[2147483647,0,0,1,1,2,2,3,3,4,4,5,5,6,6],"right_children":[2,4,6,8,10,12,14,-1,-1,-1,-1,-1,-1,-1,-1],"split_conditions":[-1.8031472E0,1.6925588E0,1.6594491E0,1.0670996E0,9.2437E4,1.773103E0,-7.322519E-2,-1.8307321E-3,-9.548869E-2,1.05154805E-1,2.3070602E-2,-9.625631E-2,-7.7618132E-3,1.8353144E-2,-7.967331E-2],"split_indices":[14,21,4,27,0,22,6,0,0,0,0,0,0,0,0],"split_type":[0,0,0,0,0,0,0,0,0,0,0,0,0,0,0],"sum_hessian":[3.291224E2,5.0418694E1,2.7870374E2,4.5142513E1,5.2761817E0,2.4689307E2,3.181065E1,3.8212357E1,6.9301567E0,4.0909433E0,1.1852384E0,2.4572789E2,1.16519E0,8.570468E0,2.3240183E1],"tree_param":{"num_deleted":"0","num_feature":"30","num_nodes":"15","size_leaf_vector":"1"}},{"base_weights":[-7.6236683E-1,-4.1742697E-2,-9.037627E-1,-6.283028E-1,1.684717E-1,-1.0332008E-1,-9.267971E-1,1.6759334E-2,-8.1913136E-2,3.2054655E-2,-6.780261E-2,9.381408E-2,-6.663889E-2,-9.379902E-2,-9.611427E-3],"categories":[],"categories_nodes":[],"categories_segments":[],"categories_sizes":[],"default_left":[0,0,0,0,0,0,0,0,0,0,0,0,0,0,0],"id":43,"left_children":[1,3,5,7,9,11,13,-1,-1,-1,-1,-1,-1,-1,-1],"loss_changes":[3.1125977E1,6.420957E0,4.6174927E0,2.2216544E0,5.1724734E0,5.478327E0,2.21904E0,0E0,0E0,0E0,0E0,0E0,0E0,0E0,0E0],"parents":[2147483647,0,0,1,1,2,2,3,3,4,4,5,5,6,6],"right_children":[2,4,6,8,10,12,14,-1,-1,-1,-1,-1,-1,-1,-1],"split_conditions":[-1.8031472E0,1.1480798E0,-9.8616564E-1,-1.0731785E0,1.6817074E0,-6.694522E-1,1.1513746E0,1.6759334E-2,-8.1913136E-2,3.2054655E-2,-6.780261E-2,9.381408E-2,-6.663889E-2,-9.379902E-2,-9.611427E-3],"split_indices":[14,4,20,7,16,12,23,0,0,0,0,0,0,0,0],"split_type":[0,0,0,0,0,0,0,0,0,0,0,0,0,0,0],"sum_hessian":[3.048466E2,5.0216003E1,2.546306E2,1.2723847E1,3.7492153E1,7.275995E0,2.473546E2,2.4842875E0,1.023956E1,3.2309093E1,5.1830606E0,2.3195667E0,4.956428E0,2.4393845E2,3.416151E0],"tree_param":{"num_deleted":"0","num_feature":"30","num_nodes":"15","size_leaf_vector":"1"}},{"base_weights":[-7.4669075E-1,-9.187552E-1,-1.1400138E-1,-2.4434938E-1,-9.4195175E-1,2.2824319E-1,-6.36974E-1,-5.4348316E-2,5.8641877E-2,-9.590026E-2,-4.0589526E-2,6.6776074E-2,-1.7593777E-2,-8.899988E-2,1.8430566E-3],"categories":[],"categories_nodes":[],"categories_segments":[],"categories_sizes":[],"default_left":[0,0,0,0,0,0,0,0,0,0,0,0,0,0,0],"id":44,"left_children":[1,3,5,7,9,11,13,-1,-1,-1,-1,-1,-1,-1,-1],"loss_changes":[3.0674744E1,3.244995E0,1.116962E1,2.4899192E0,1.5704498E0,6.8618793E0,4.100481E0,0E0,0E0,0E0,0E0,0E0,0E0,0E0,0E0],"parents":[2147483647,0,0,1,1,2,2,3,3,4,4,5,5,6,6],"right_children":[2,4,6,8,10,12,14,-1,-1,-1,-1,-1,-1,-1,-1],"split_conditions":[1.6594491E0,-1.8919699E0,-8.2575727E-1,1.1480798E0,6.847854E-1,3.5190366E-2,3.0208802E-1,-5.4348316E-2,5.8641877E-2,-9.590026E-2,-4.0589526E-2,6.6776074E-2,-1.7593777E-2,-8.899988E-2,1.8430566E-3],"split_indices":[4,10,14,4,21,13,17,0,0,0,0,0,0,0,0],"split_type":[0,0,0,0,0,0,0,0,0,0,0,0,0,0,0],"sum_hessian":[2.8173492E2,2.211417E2,6.0593224E1,7.736885E0,2.134048E2,3.6965664E1,2.3627562E1,5.9428544E0,1.7940308E0,2.0606143E2,7.343366E0,1.7396305E1,1.9569357E1,1.6788336E1,6.8392253E0],"tree_param":{"num_deleted":"0","num_feature":"30","num_nodes":"15","size_leaf_vector":"1"}},{"base_weights":[-7.297268E-1,-9.1046506E-1,-1.0685089E-1,-2.2456089E-1,-9.3585026E-1,1.6480577E-1,-7.0278794E-1,-7.5268134E-2,2.6068335E-2,-9.5447764E-2,-3.8418513E-2,-1.11317225E-2,8.939531E-2,8.285305E-2,-8.5127674E-2],"categories":[],"categories_nodes":[],"categories_segments":[],"categories_sizes":[],"default_left":[0,0,0,0,0,0,0,0,0,0,0,0,0,0,0],"id":45,"left_children":[1,3,5,7,9,11,13,-1,-1,-1,-1,-1,-1,-1,-1],"loss_changes":[2.9393265E1,3.322815E0,9.837171E0,2.3891687E0,1.6407623E0,8.566988E0,5.023823E0,0E0,0E0,0E0,0E0,0E0,0E0,0E0,0E0],"parents":[2147483647,0,0,1,1,2,2,3,3,4,4,5,5,6,6],"right_children":[2,4,6,8,10,12,14,-1,-1,-1,-1,-1,-1,-1,-1],"split_conditions":[1.6594491E0,-1.8919699E0,-2.6831874E-1,1.699E1,6.847854E-1,9.9E1,7.7E-1,-7.5268134E-2,2.6068335E-2,-9.5447764E-2,-3.8418513E-2,-1.11317225E-2,8.939531E-2,8.285305E-2,-8.5127674E-2],"split_indices":[4,10,12,29,21,29,29,0,0,0,0,0,0,0,0],"split_type":[0,0,0,0,0,0,0,0,0,0,0,0,0,0,0],"sum_hessian":[2.6095755E2,2.0190857E2,5.9048992E1,7.5573015E0,1.9435127E2,4.105679E1,1.79922E1,3.3548634E0,4.2024384E0,1.8729689E2,7.0543833E0,3.0394093E1,1.0662699E1,1.1856108E0,1.680659E1],"tree_param":{"num_deleted":"0","num_feature":"30","num_nodes":"15","size_leaf_vector":"1"}},{"base_weights":[-7.113086E-1,-9.0138096E-1,-9.806146E-2,-2.10266E-1,-9.292337E-1,1.8325455E-1,-6.4828515E-1,-5.0240237E-2,5.6615155E-2,-9.495603E-2,-3.630282E-2,3.7485663E-2,-7.529303E-2,3.8095E-2,-8.0901004E-2],"categories":[],"categories_nodes":[],"categories_segments":[],"categories_sizes":[],"default_left":[0,0,0,0,0,0,0,0,0,0,0,0,0,0,0],"id":46,"left_children":[1,3,5,7,9,11,13,-1,-1,-1,-1,-1,-1,-1,-1],"loss_changes":[2.8267128E1,3.3770142E0,9.201859E0,2.2083251E0,1.7050934E0,7.3870106E0,3.6286802E0,0E0,0E0,0E0,0E0,0E0,0E0,0E0,0E0],"parents":[2147483647,0,0,1,1,2,2,3,3,4,4,5,5,6,6],"right_children":[2,4,6,8,10,12,14,-1,-1,-1,-1,-1,-1,-1,-1],"split_conditions":[1.6594491E0,-1.8919699E0,2.9631624E-1,1.1480798E0,6.847854E-1,-4.4453263E-2,-1.6114689E0,-5.0240237E-2,5.6615155E-2,-9.495603E-2,-3.630282E-2,3.7485663E-2,-7.529303E-2,3.8095E-2,-8.0901004E-2],"split_indices":[4,10,6,4,21,12,17,0,0,0,0,0,0,0,0],"split_type":[0,0,0,0,0,0,0,0,0,0,0,0,0,0,0],"sum_hessian":[2.4226682E2,1.845857E2,5.7681114E1,7.482016E0,1.7710368E2,3.8608482E1,1.9072632E1,5.6929126E0,1.7891039E0,1.7031244E2,6.791248E0,3.2546932E1,6.06155E0,2.3910222E0,1.668161E1],"tree_param":{"num_deleted":"0","num_feature":"30","num_nodes":"15","size_leaf_vector":"1"}},{"base_weights":[-6.943805E-1,-8.917159E-1,-9.350541E-2,-1.924326E-1,-9.2206275E-1,-6.385532E-1,1.749055E-1,-7.120397E-2,2.6419831E-2,-9.442166E-2,-3.42483E-2,4.3881442E-2,-8.8086866E-2,1.4272039E-1,3.0726483E-3],"categories":[],"categories_nodes":[],"categories_segments":[],"categories_sizes":[],"default_left":[0,0,0,0,0,0,0,0,0,0,0,0,0,0,0],"id":47,"left_children":[1,3,5,7,9,11,13,-1,-1,-1,-1,-1,-1,-1,-1],"loss_changes":[2.668396E1,3.4262848E0,8.439786E0,2.163813E0,1.7630005E0,5.346334E0,6.9847207E0,0E0,0E0,0E0,0E0,0E0,0E0,0E0,0E0],"parents":[2147483647,0,0,1,1,2,2,3,3,4,4,5,5,6,6],"right_children":[2,4,6,8,10,12,14,-1,-1,-1,-1,-1,-1,-1,-1],"split_conditions":[1.6594491E0,-1.8919699E0,1.3952582E-1,1.699E1,6.847854E-1,-4.8177356E-1,7.7E-1,-7.120397E-2,2.6419831E-2,-9.442166E-2,-3.42483E-2,4.3881442E-2,-8.8086866E-2,1.4272039E-1,3.0726483E-3],"split_indices":[4,10,11,29,21,6,29,0,0,0,0,0,0,0,0],"split_type":[0,0,0,0,0,0,0,0,0,0,0,0,0,0,0],"sum_hessian":[2.2474393E2,1.6881787E2,5.5926064E1,7.326822E0,1.6149104E2,1.7998484E1,3.792758E1,3.1654623E0,4.1613593E0,1.549395E2,6.551549E0,3.1559174E0,1.48425665E1,2.9970667E0,3.4930515E1],"tree_param":{"num_deleted":"0","num_feature":"30","num_nodes":"15","size_leaf_vector":"1"}},{"base_weights":[-6.743466E-1,-8.811761E-1,-8.504117E-2,-3.368715E-1,-9.2629415E-1,1.7381322E-1,-6.2112534E-1,1.0659256E-1,-5.3768534E-2,-2.4747526E-2,-9.3709745E-2,6.6837296E-2,-1.41590675E-2,-8.069812E-2,2.5046444E-2],"categories":[],"categories_nodes":[],"categories_segments":[],"categories_sizes":[],"default_left":[0,0,0,0,0,0,0,0,0,0,0,0,0,0,0],"id":48,"left_children":[1,3,5,7,9,11,13,-1,-1,-1,-1,-1,-1,-1,-1],"loss_changes":[2.5568817E1,3.5098343E0,7.8463306E0,4.3716335E0,8.178177E-1,6.0825715E0,3.1790547E0,0E0,0E0,0E0,0E0,0E0,0E0,0E0,0E0],"parents":[2147483647,0,0,1,1,2,2,3,3,4,4,5,5,6,6],"right_children":[2,4,6,8,10,12,14,-1,-1,-1,-1,-1,-1,-1,-1],"split_conditions":[1.6594491E0,-1.8031472E0,-4.26745E-1,-2.3488998E0,-2.1545644E0,1.803115E-1,1.6664362E-1,1.0659256E-1,-5.3768534E-2,-2.4747526E-2,-9.3709745E-2,6.6837296E-2,-1.41590675E-2,-8.069812E-2,2.5046444E-2],"split_indices":[4,14,14,7,16,8,28,0,0,0,0,0,0,0,0],"split_type":[0,0,0,0,0,0,0,0,0,0,0,0,0,0,0],"sum_hessian":[2.0939174E2,1.5462683E2,5.4764908E1,1.2484157E1,1.4214267E2,3.738763E1,1.7377275E1,1.0238639E0,1.1460293E1,2.6012602E0,1.3954141E2,1.4123147E1,2.3264484E1,1.4384158E1,2.9931176E0],"tree_param":{"num_deleted":"0","num_feature":"30","num_nodes":"15","size_leaf_vector":"1"}},{"base_weights":[-6.527184E-1,-8.700274E-1,-7.850649E-2,-9.077285E-1,-1.6060011E-1,1.6648999E-1,-6.070951E-1,-2.5955394E-2,-9.3238875E-2,8.94698E-2,-6.8181336E-2,3.352829E-2,-7.274488E-2,3.4458946E-2,-7.7439725E-2],"categories":[],"categories_nodes":[],"categories_segments":[],"categories_sizes":[],"default_left":[0,0,0,0,0,0,0,0,0,0,0,0,0,0,0],"id":49,"left_children":[1,3,5,7,9,11,13,-1,-1,-1,-1,-1,-1,-1,-1],"loss_changes":[2.4481377E1,3.6689606E0,7.2384386E0,1.9192963E0,5.2369847E0,6.0447173E0,3.0802317E0,0E0,0E0,0E0,0E0,0E0,0E0,0E0,0E0],"parents":[2147483647,0,0,1,1,2,2,3,3,4,4,5,5,6,6],"right_children":[2,4,6,8,10,12,14,-1,-1,-1,-1,-1,-1,-1,-1],"split_conditions":[1.6594491E0,6.847854E-1,2.9631624E-1,-1.8919699E0,-8.939994E-1,-4.4453263E-2,-1.6114689E0,-2.5955394E-2,-9.3238875E-2,8.94698E-2,-6.8181336E-2,3.352829E-2,-7.274488E-2,3.4458946E-2,-7.7439725E-2],"split_indices":[4,21,6,10,16,12,17,0,0,0,0,0,0,0,0],"split_type":[0,0,0,0,0,0,0,0,0,0,0,0,0,0,0],"sum_hessian":[1.9574142E2,1.4162764E2,5.4113777E1,1.3421552E2,7.412128E0,3.7443874E1,1.66699E1,5.3415866E0,1.2887393E2,2.2136312E0,5.198497E0,3.2022373E1,5.421504E0,2.333918E0,1.4335982E1],"tree_param":{"num_deleted":"0","num_feature":"30","num_nodes":"15","size_leaf_vector":"1"}},{"base_weights":[-6.341727E-1,-8.5863847E-1,-7.50491E-2,-2.7563494E-1,-9.1131896E-1,1.0108764E0,-1.8327256E-1,-5.3889018E-2,8.787178E-2,-9.3253784E-2,-3.896567E-2,-3.3271383E-2,1.7800696E-1,5.8118305E-3,-8.027002E-2],"categories":[],"categories_nodes":[],"categories_segments":[],"categories_sizes":[],"default_left":[0,0,0,0,0,0,0,0,0,0,0,0,0,0,0],"id":50,"left_children":[1,3,5,7,9,11,13,-1,-1,-1,-1,-1,-1,-1,-1],"loss_changes":[2.2963837E1,3.7669525E0,6.491172E0,4.20399E0,9.599762E-1,5.776506E0,7.4691296E0,0E0,0E0,0E0,0E0,0E0,0E0,0E0,0E0],"parents":[2147483647,0,0,1,1,2,2,3,3,4,4,5,5,6,6],"right_children":[2,4,6,8,10,12,14,-1,-1,-1,-1,-1,-1,-1,-1],"split_conditions":[1.6594491E0,-1.8031472E0,7.7E-1,-2.0469048E0,6.847854E-1,6.1935786E-2,-2.7784643E-1,-5.3889018E-2,8.787178E-2,-9.3253784E-2,-3.896567E-2,-3.3271383E-2,1.7800696E-1,5.8118305E-3,-8.027002E-2],"split_indices":[4,14,29,14,21,28,12,0,0,0,0,0,0,0,0],"split_type":[0,0,0,0,0,0,0,0,0,0,0,0,0,0,0],"sum_hessian":[1.8248622E2,1.2982927E2,5.2656956E1,1.1275707E1,1.18553566E2,4.0163035E0,4.864065E1,9.615921E0,1.6597862E0,1.1316297E2,5.390594E0,1.6687903E0,2.3475132E0,3.5652897E1,1.2987755E1],"tree_param":{"num_deleted":"0","num_feature":"30","num_nodes":"15","size_leaf_vector":"1"}},{"base_weights":[-6.1167854E-1,-8.4420997E-1,-6.819328E-2,-2.4907616E-1,-9.026182E-1,-2.0511554E-1,7.638909E-1,3.512026E-2,-7.822781E-2,-9.264799E-2,-3.613503E-2,-7.360788E-2,4.436339E-3,1.1259698E-1,-5.681057E-2],"categories":[],"categories_nodes":[],"categories_segments":[],"categories_sizes":[],"default_left":[0,0,0,0,0,0,0,0,0,0,0,0,0,0,0],"id":51,"left_children":[1,3,5,7,9,11,13,-1,-1,-1,-1,-1,-1,-1,-1],"loss_changes":[2.1695038E1,3.9624481E0,6.156791E0,4.1625714E0,1.0770569E0,6.1274896E0,4.3307414E0,0E0,0E0,0E0,0E0,0E0,0E0,0E0,0E0],"parents":[2147483647,0,0,1,1,2,2,3,3,4,4,5,5,6,6],"right_children":[2,4,6,8,10,12,14,-1,-1,-1,-1,-1,-1,-1,-1],"split_conditions":[1.6594491E0,-1.8031472E0,5.483897E-1,4.8112333E-1,8.2609695E-1,1.3952582E-1,-4.4453263E-2,3.512026E-2,-7.822781E-2,-9.264799E-2,-3.613503E-2,-7.360788E-2,4.436339E-3,1.1259698E-1,-5.681057E-2],"split_indices":[4,14,23,5,20,11,12,0,0,0,0,0,0,0,0],"split_type":[0,0,0,0,0,0,0,0,0,0,0,0,0,0,0],"sum_hessian":[1.711242E2,1.1945975E2,5.1664455E1,1.114683E1,1.0831291E2,4.50112E1,6.653253E0,5.4041595E0,5.74267E0,1.0305795E2,5.254959E0,1.3764949E1,3.1246252E1,5.352853E0,1.3004E0],"tree_param":{"num_deleted":"0","num_feature":"30","num_nodes":"15","size_leaf_vector":"1"}},{"base_weights":[-5.9099036E-1,-8.752104E-1,-1.3725635E-1,-8.983425E-1,-8.494715E-2,1.4149961E-1,-6.850581E-1,-2.6753563E-3,-9.077208E-2,5.655008E-2,-6.233905E-2,-1.89954E-2,9.9511705E-2,8.067976E-2,-8.1362985E-2],"categories":[],"categories_nodes":[],"categories_segments":[],"categories_sizes":[],"default_left":[0,0,0,0,0,0,0,0,0,0,0,0,0,0,0],"id":52,"left_children":[1,3,5,7,9,11,13,-1,-1,-1,-1,-1,-1,-1,-1],"loss_changes":[2.0701996E1,1.7350845E0,9.77407E0,7.617798E-1,1.7262776E0,1.230678E1,4.7886915E0,0E0,0E0,0E0,0E0,0E0,0E0,0E0,0E0],"parents":[2147483647,0,0,1,1,2,2,3,3,4,4,5,5,6,6],"right_children":[2,4,6,8,10,12,14,-1,-1,-1,-1,-1,-1,-1,-1],"split_conditions":[1.1480798E0,2.0768738E0,-2.6831874E-1,7.6E-1,-2.2388148E0,1.6845424E-1,7.7E-1,-2.6753563E-3,-9.077208E-2,5.655008E-2,-6.233905E-2,-1.89954E-2,9.9511705E-2,8.067976E-2,-8.1362985E-2],"split_indices":[4,11,12,29,10,23,29,0,0,0,0,0,0,0,0],"split_type":[0,0,0,0,0,0,0,0,0,0,0,0,0,0,0],"sum_hessian":[1.6046153E2,9.808927E1,6.2372253E1,9.516684E1,2.922429E0,4.182882E1,2.0543436E1,1.0541035E0,9.411274E1,1.300796E0,1.621633E0,3.06897E1,1.1139121E1,1.2114577E0,1.9331978E1],"tree_param":{"num_deleted":"0","num_feature":"30","num_nodes":"15","size_leaf_vector":"1"}},{"base_weights":[-5.6818646E-1,-8.637362E-1,-1.2598072E-1,-3.4487224E-1,-9.0572315E-1,1.4639176E-1,-6.348241E-1,2.5936514E-2,-8.520199E-2,-1.5131106E-3,-9.166629E-2,-1.0836588E-2,8.058002E-2,-7.928481E-2,3.7137475E-2],"categories":[],"categories_nodes":[],"categories_segments":[],"categories_sizes":[],"default_left":[0,0,0,0,0,0,0,0,0,0,0,0,0,0,0],"id":53,"left_children":[1,3,5,7,9,11,13,-1,-1,-1,-1,-1,-1,-1,-1],"loss_changes":[1.975137E1,1.6682205E0,8.692306E0,2.801467E0,7.995758E-1,7.0129623E0,3.7639217E0,0E0,0E0,0E0,0E0,0E0,0E0,0E0,0E0],"parents":[2147483647,0,0,1,1,2,2,3,3,4,4,5,5,6,6],"right_children":[2,4,6,8,10,12,14,-1,-1,-1,-1,-1,-1,-1,-1],"split_conditions":[1.1480798E0,-1.8031472E0,-4.26745E-1,-5.287849E-2,7.6E-1,9.9E1,1.1587696E0,2.5936514E-2,-8.520199E-2,-1.5131106E-3,-9.166629E-2,-1.0836588E-2,8.058002E-2,-7.928481E-2,3.7137475E-2],"split_indices":[4,14,14,15,29,29,19,0,0,0,0,0,0,0,0],"split_type":[0,0,0,0,0,0,0,0,0,0,0,0,0,0,0],"sum_hessian":[1.5095963E2,8.991283E1,6.1046806E1,7.420907E0,8.249192E1,4.0226673E1,2.0820133E1,3.6092606E0,3.8116465E0,1.0299244E0,8.1462E1,2.9619179E1,1.0607492E1,1.81774E1,2.642732E0],"tree_param":{"num_deleted":"0","num_feature":"30","num_nodes":"15","size_leaf_vector":"1"}},{"base_weights":[-5.4607105E-1,-8.5136557E-1,-1.1640261E-1,-3.266082E-1,-8.966897E-1,-2.549077E-1,8.401043E-1,-8.380147E-2,2.63953E-2,-9.0854935E-2,-1.1557488E-3,-2.0945459E-3,-6.842887E-2,1.7553699E-1,7.2971107E-3],"categories":[],"categories_nodes":[],"categories_segments":[],"categories_sizes":[],"default_left":[0,0,0,0,0,0,0,0,0,0,0,0,0,0,0],"id":54,"left_children":[1,3,5,7,9,11,13,-1,-1,-1,-1,-1,-1,-1,-1],"loss_changes":[1.8692783E1,1.695301E0,8.251227E0,2.7034302E0,7.912102E-1,5.3862996E0,5.423128E0,0E0,0E0,0E0,0E0,0E0,0E0,0E0,0E0],"parents":[2147483647,0,0,1,1,2,2,3,3,4,4,5,5,6,6],"right_children":[2,4,6,8,10,12,14,-1,-1,-1,-1,-1,-1,-1,-1],"split_conditions":[1.1480798E0,-1.8031472E0,5.483897E-1,1.699E1,1.9461343E0,-4.559686E-1,-1.1745358E-1,-8.380147E-2,2.63953E-2,-9.0854935E-2,-1.1557488E-3,-2.0945459E-3,-6.842887E-2,1.7553699E-1,7.2971107E-3],"split_indices":[4,14,23,29,19,14,26,0,0,0,0,0,0,0,0],"split_type":[0,0,0,0,0,0,0,0,0,0,0,0,0,0,0],"sum_hessian":[1.4225769E2,8.259184E1,5.9665855E1,7.2188587E0,7.537298E1,5.2759605E1,6.9062495E0,3.6441398E0,3.574719E0,7.435033E1,1.0226563E0,3.483008E1,1.7929527E1,2.5616856E0,4.344564E0],"tree_param":{"num_deleted":"0","num_feature":"30","num_nodes":"15","size_leaf_vector":"1"}},{"base_weights":[-5.220214E-1,-8.381482E-1,-1.0557306E-1,-3.0914074E-1,-8.8694197E-1,1.388295E-1,-6.38578E-1,-7.232667E-2,3.6628395E-2,-5.6611764E-4,-8.997843E-2,-1.5657686E-2,8.844794E-2,7.9916395E-2,-7.827211E-2],"categories":[],"categories_nodes":[],"categories_segments":[],"categories_sizes":[],"default_left":[0,0,0,0,0,0,0,0,0,0,0,0,0,0,0],"id":55,"left_children":[1,3,5,7,9,11,13,-1,-1,-1,-1,-1,-1,-1,-1],"loss_changes":[1.7768768E1,1.7124329E0,7.8626676E0,2.512246E0,7.8634644E-1,9.331931E0,4.5506573E0,0E0,0E0,0E0,0E0,0E0,0E0,0E0,0E0],"parents":[2147483647,0,0,1,1,2,2,3,3,4,4,5,5,6,6],"right_children":[2,4,6,8,10,12,14,-1,-1,-1,-1,-1,-1,-1,-1],"split_conditions":[1.1480798E0,-1.8031472E0,-2.6831874E-1,1.3283848E0,-2.1227558E0,1.6845424E-1,7.7E-1,-7.232667E-2,3.6628395E-2,-5.6611764E-4,-8.997843E-2,-1.5657686E-2,8.844794E-2,7.9916395E-2,-7.827211E-2],"split_indices":[4,14,12,11,13,23,29,0,0,0,0,0,0,0,0],"split_type":[0,0,0,0,0,0,0,0,0,0,0,0,0,0,0],"sum_hessian":[1.346414E2,7.596421E1,5.8677193E1,7.034457E0,6.8929756E1,4.0737206E1,1.7939987E1,4.316829E0,2.7176278E0,1.0107309E0,6.791903E1,2.9743607E1,1.0993601E1,1.2206353E0,1.671935E1],"tree_param":{"num_deleted":"0","num_feature":"30","num_nodes":"15","size_leaf_vector":"1"}},{"base_weights":[-4.98733E-1,-8.247149E-1,-9.635906E-2,-2.9299122E-1,-8.764428E-1,1.2626763E-1,-6.132825E-1,2.732772E-2,-8.0986656E-2,-5.3782685E-4,-8.9030504E-2,-1.5302101E-2,8.64696E-2,7.207575E-2,-7.637087E-2],"categories":[],"categories_nodes":[],"categories_segments":[],"categories_sizes":[],"default_left":[0,0,0,0,0,0,0,0,0,0,0,0,0,0,0],"id":56,"left_children":[1,3,5,7,9,11,13,-1,-1,-1,-1,-1,-1,-1,-1],"loss_changes":[1.6782116E1,1.6928825E0,6.8288145E0,2.5004017E0,7.691879E-1,8.7602005E0,4.128689E0,0E0,0E0,0E0,0E0,0E0,0E0,0E0,0E0],"parents":[2147483647,0,0,1,1,2,2,3,3,4,4,5,5,6,6],"right_children":[2,4,6,8,10,12,14,-1,-1,-1,-1,-1,-1,-1,-1],"split_conditions":[1.1480798E0,-1.8031472E0,-2.6831874E-1,-5.287849E-2,-2.1227558E0,9.9E1,7.7E-1,2.732772E-2,-8.0986656E-2,-5.3782685E-4,-8.9030504E-2,-1.5302101E-2,8.64696E-2,7.207575E-2,-7.637087E-2],"split_indices":[4,14,12,15,13,29,29,0,0,0,0,0,0,0,0],"split_type":[0,0,0,0,0,0,0,0,0,0,0,0,0,0,0],"sum_hessian":[1.2755085E2,6.988452E1,5.766633E1,6.786677E0,6.3097847E1,4.0835278E1,1.6831053E1,3.463496E0,3.323181E0,1.0101597E0,6.2087685E1,3.0204206E1,1.063107E1,1.3213508E0,1.5509703E1],"tree_param":{"num_deleted":"0","num_feature":"30","num_nodes":"15","size_leaf_vector":"1"}},{"base_weights":[-4.7578835E-1,-8.09837E-1,-8.7950066E-2,-4.7339495E-2,-8.445616E-1,1.3339646E-1,-5.666636E-1,-6.819466E-2,4.6006437E-2,-3.3718053E-2,-8.944956E-2,8.717813E-2,-9.0378355E-3,-7.498335E-2,4.2855296E-2],"categories":[],"categories_nodes":[],"categories_segments":[],"categories_sizes":[],"default_left":[0,0,0,0,0,0,0,0,0,0,0,0,0,0,0],"id":57,"left_children":[1,3,5,7,9,11,13,-1,-1,-1,-1,-1,-1,-1,-1],"loss_changes":[1.5741207E1,1.6929779E0,6.1789536E0,1.5728331E0,1.2828827E0,6.7206516E0,3.6760168E0,0E0,0E0,0E0,0E0,0E0,0E0,0E0,0E0],"parents":[2147483647,0,0,1,1,2,2,3,3,4,4,5,5,6,6],"right_children":[2,4,6,8,10,12,14,-1,-1,-1,-1,-1,-1,-1,-1],"split_conditions":[1.1480798E0,-2.1545644E0,-4.26745E-1,-9.8523843E-1,-1.9561236E0,-9.3623155E-1,1.1587696E0,-6.819466E-2,4.6006437E-2,-3.3718053E-2,-8.944956E-2,8.717813E-2,-9.0378355E-3,-7.498335E-2,4.2855296E-2],"split_indices":[4,16,14,6,3,13,19,0,0,0,0,0,0,0,0],"split_type":[0,0,0,0,0,0,0,0,0,0,0,0,0,0,0],"sum_hessian":[1.21050156E2,6.445038E1,5.6599773E1,2.9102032E0,6.1540176E1,3.91972E1,1.7402575E1,1.1401867E0,1.7700167E0,6.20845E0,5.5331726E1,8.442819E0,3.0754383E1,1.4905732E1,2.496842E0],"tree_param":{"num_deleted":"0","num_feature":"30","num_nodes":"15","size_leaf_vector":"1"}},{"base_weights":[-4.5337716E-1,-7.939963E-1,-8.053911E-2,-8.3734345E-1,-8.857589E-2,-2.0778584E-1,7.4689007E-1,1.913256E-2,-8.637325E-2,7.975592E-2,-6.9558546E-2,-5.40182E-2,8.665315E-3,-2.351461E-3,1.5838271E-1],"categories":[],"categories_nodes":[],"categories_segments":[],"categories_sizes":[],"default_left":[0,0,0,0,0,0,0,0,0,0,0,0,0,0,0],"id":58,"left_children":[1,3,5,7,9,11,13,-1,-1,-1,-1,-1,-1,-1,-1],"loss_changes":[1.467569E1,1.7770195E0,6.1064973E0,1.7102814E0,3.0414636E0,4.91807E0,5.0353513E0,0E0,0E0,0E0,0E0,0E0,0E0,0E0,0E0],"parents":[2147483647,0,0,1,1,2,2,3,3,4,4,5,5,6,6],"right_children":[2,4,6,8,10,12,14,-1,-1,-1,-1,-1,-1,-1,-1],"split_conditions":[1.1480798E0,6.847854E-1,5.483897E-1,-2.5376408E0,-8.939994E-1,-1.8056133E-1,4.4213533E-1,1.913256E-2,-8.637325E-2,7.975592E-2,-6.9558546E-2,-5.40182E-2,8.665315E-3,-2.351461E-3,1.5838271E-1],"split_indices":[4,21,23,8,16,26,21,0,0,0,0,0,0,0,0],"split_type":[0,0,0,0,0,0,0,0,0,0,0,0,0,0,0],"sum_hessian":[1.1506401E2,5.9539783E1,5.552423E1,5.591675E1,3.6230304E0,4.8772583E1,6.751646E0,1.2422533E0,5.46745E1,1.3452579E0,2.2777727E0,2.2517576E1,2.6255009E1,4.021625E0,2.7300212E0],"tree_param":{"num_deleted":"0","num_feature":"30","num_nodes":"15","size_leaf_vector":"1"}},{"base_weights":[-4.2714557E-1,-1.9848E-2,-7.334744E-1,-2.3985277E-1,6.201562E-1,-8.137931E-1,2.0280024E-1,-4.3836343E-3,-1.5790288E-1,-2.4853915E-3,1.2358806E-1,-3.1607416E-2,-8.995762E-2,-5.8422636E-2,1.9758624E-1],"categories":[],"categories_nodes":[],"categories_segments":[],"categories_sizes":[],"default_left":[0,0,0,0,0,0,0,0,0,0,0,0,0,0,0],"id":59,"left_children":[1,3,5,7,9,11,13,-1,-1,-1,-1,-1,-1,-1,-1],"loss_changes":[1.3863628E1,7.0164943E0,4.9370766E0,9.648239E0,5.0969095E0,2.2194977E0,9.267694E0,0E0,0E0,0E0,0E0,0E0,0E0,0E0,0E0],"parents":[2147483647,0,0,1,1,2,2,3,3,4,4,5,5,6,6],"right_children":[2,4,6,8,10,12,14,-1,-1,-1,-1,-1,-1,-1,-1],"split_conditions":[-8.2575727E-1,9.4E1,7.303462E-1,8.885E1,4.3107253E-1,-3.42076E-1,7.100787E-1,-4.3836343E-3,-1.5790288E-1,-2.4853915E-3,1.2358806E-1,-3.1607416E-2,-8.995762E-2,-5.8422636E-2,1.9758624E-1],"split_indices":[14,29,20,29,21,20,19,0,0,0,0,0,0,0,0],"split_type":[0,0,0,0,0,0,0,0,0,0,0,0,0,0,0],"sum_hessian":[1.1023284E2,4.7775238E1,6.2457603E1,3.6018818E1,1.1756423E1,5.764345E1,4.814154E0,3.2320736E1,3.698082E0,6.2103376E0,5.5460854E0,9.163101E0,4.848035E1,3.798552E0,1.015602E0],"tree_param":{"num_deleted":"0","num_feature":"30","num_nodes":"15","size_leaf_vector":"1"}},{"base_weights":[-4.0437487E-1,-7.6344323E-1,-4.985236E-2,-2.0637457E-1,-8.3016735E-1,3.9526257E-1,-2.7026471E-1,-7.5682916E-2,3.661388E-2,-8.65789E-2,-1.3794966E-2,-6.622365E-3,1.9238292E-1,4.050149E-3,-7.931121E-2],"categories":[],"categories_nodes":[],"categories_segments":[],"categories_sizes":[],"default_left":[0,0,0,0,0,0,0,0,0,0,0,0,0,0,0],"id":60,"left_children":[1,3,5,7,9,11,13,-1,-1,-1,-1,-1,-1,-1,-1],"loss_changes":[1.349497E1,1.789257E0,5.459984E0,2.4745557E0,1.033905E0,1.3161075E1,6.0581074E0,0E0,0E0,0E0,0E0,0E0,0E0,0E0,0E0],"parents":[2147483647,0,0,1,1,2,2,3,3,4,4,5,5,6,6],"right_children":[2,4,6,8,10,12,14,-1,-1,-1,-1,-1,-1,-1,-1],"split_conditions":[1.1480798E0,-1.8031472E0,-6.662776E-2,1.699E1,1.1466954E0,3.3131993E-1,-1.1593499E0,-7.5682916E-2,3.661388E-2,-8.65789E-2,-1.3794966E-2,-6.622365E-3,1.9238292E-1,4.050149E-3,-7.931121E-2],"split_indices":[4,14,8,29,22,21,14,0,0,0,0,0,0,0,0],"split_type":[0,0,0,0,0,0,0,0,0,0,0,0,0,0,0],"sum_hessian":[1.0530998E2,5.174651E1,5.3563473E1,5.9728785E0,4.5773632E1,1.747667E1,3.6086803E1,2.88097E0,3.0919082E0,4.3294918E1,2.478711E0,1.4158717E1,3.317952E0,2.3212477E1,1.2874327E1],"tree_param":{"num_deleted":"0","num_feature":"30","num_nodes":"15","size_leaf_vector":"1"}},{"base_weights":[-3.824549E-1,-7.7699155E-1,-6.729426E-2,-9.213029E-1,-3.7657657E-1,2.7619284E-1,-3.3342874E-1,-3.9344642E-2,-9.6617125E-2,-6.533548E-2,6.496992E-2,8.740302E-2,-4.406553E-2,-7.608638E-2,5.225507E-3],"categories":[],"categories_nodes":[],"categories_segments":[],"categories_sizes":[],"default_left":[0,0,0,0,0,0,0,0,0,0,0,0,0,0,0],"id":61,"left_children":[1,3,5,7,9,11,13,-1,-1,-1,-1,-1,-1,-1,-1],"loss_changes":[1.2611396E1,2.2610054E0,5.367841E0,3.89225E-1,4.3012056E0,1.1417055E1,5.4751816E0,0E0,0E0,0E0,0E0,0E0,0E0,0E0,0E0],"parents":[2147483647,0,0,1,1,2,2,3,3,4,4,5,5,6,6],"right_children":[2,4,6,8,10,12,14,-1,-1,-1,-1,-1,-1,-1,-1],"split_conditions":[8.9407265E-1,3.7994766E-1,1.0954435E-1,-1.8031472E0,8.301706E-1,1.10792E5,-1.6783983E-1,-3.9344642E-2,-9.6617125E-2,-6.533548E-2,6.496992E-2,8.740302E-2,-4.406553E-2,-7.608638E-2,5.225507E-3],"split_indices":[4,19,8,14,22,0,26,0,0,0,0,0,0,0,0],"split_type":[0,0,0,0,0,0,0,0,0,0,0,0,0,0,0],"sum_hessian":[1.0084522E2,4.413236E1,5.6712864E1,3.1484375E1,1.26479845E1,2.474189E1,3.1970974E1,3.2318604E0,2.8252514E1,1.0247649E1,2.400335E0,1.3371255E1,1.1370635E1,1.4703272E1,1.7267702E1],"tree_param":{"num_deleted":"0","num_feature":"30","num_nodes":"15","size_leaf_vector":"1"}},{"base_weights":[-3.5812533E-1,-3.4308847E-2,-7.3708075E-1,-7.999516E-1,1.2865981E-1,8.25394E-2,-7.976529E-1,-8.916461E-2,-5.688404E-4,4.4372104E-2,-3.339438E-2,-8.764925E-2,-1.0264082E-3],"categories":[],"categories_nodes":[],"categories_segments":[],"categories_sizes":[],"default_left":[0,0,0,0,0,0,0,0,0,0,0,0,0],"id":62,"left_children":[1,3,5,7,9,-1,11,-1,-1,-1,-1,-1,-1],"loss_changes":[1.21109495E1,6.8880672E0,4.9666367E0,7.0005274E-1,6.8084226E0,0E0,2.7429638E0,0E0,0E0,0E0,0E0,0E0,0E0],"parents":[2147483647,0,0,1,1,2,2,3,3,4,4,6,6],"right_children":[2,4,6,8,10,-1,12,-1,-1,-1,-1,-1,-1],"split_conditions":[-4.26745E-1,-4.9750674E-1,7.4E-1,6.240531E-1,5.824116E-1,8.25394E-2,1.1587696E0,-8.916461E-2,-5.688404E-4,4.4372104E-2,-3.339438E-2,-8.764925E-2,-1.0264082E-3],"split_indices":[14,11,29,24,8,0,19,0,0,0,0,0,0],"split_type":[0,0,0,0,0,0,0,0,0,0,0,0,0],"sum_hessian":[9.790015E1,5.3378708E1,4.452144E1,8.681859E0,4.469685E1,1.190315E0,4.3331123E1,7.67339E0,1.0084697E0,2.6612759E1,1.808409E1,3.928449E1,4.046634E0],"tree_param":{"num_deleted":"0","num_feature":"30","num_nodes":"13","size_leaf_vector":"1"}},{"base_weights":[-3.3569208E-1,-7.4713475E-1,-4.2618938E-2,-9.0878147E-1,-3.2737994E-1,8.178806E-2,-6.819055E-1,-3.811899E-2,-9.6029244E-2,-7.570363E-2,4.3034654E-2,-9.710076E-3,6.649254E-2,-8.809663E-2,4.5335874E-2],"categories":[],"categories_nodes":[],"categories_segments":[],"categories_sizes":[],"default_left":[0,0,0,0,0,0,0,0,0,0,0,0,0,0,0],"id":63,"left_children":[1,3,5,7,9,11,13,-1,-1,-1,-1,-1,-1,-1,-1],"loss_changes":[1.1516558E1,2.401617E0,4.58843E0,3.9915657E-1,4.4353642E0,5.1344285E0,2.5216708E0,0E0,0E0,0E0,0E0,0E0,0E0,0E0,0E0],"parents":[2147483647,0,0,1,1,2,2,3,3,4,4,5,5,6,6],"right_children":[2,4,6,8,10,12,14,-1,-1,-1,-1,-1,-1,-1,-1],"split_conditions":[8.9407265E-1,3.7994766E-1,3.1319153E-1,-1.8031472E0,3.1943012E-2,2.1901563E-1,6.707648E-1,-3.811899E-2,-9.6029244E-2,-7.570363E-2,4.3034654E-2,-9.710076E-3,6.649254E-2,-8.809663E-2,4.5335874E-2],"split_indices":[4,19,12,14,28,23,25,0,0,0,0,0,0,0,0],"split_type":[0,0,0,0,0,0,0,0,0,0,0,0,0,0,0],"sum_hessian":[9.477156E1,3.877974E1,5.5991825E1,2.7156715E1,1.1623023E1,4.7600662E1,8.391162E0,3.1627738E0,2.399394E1,7.417795E0,4.2052283E0,3.706403E1,1.0536633E1,7.329911E0,1.0612507E0],"tree_param":{"num_deleted":"0","num_feature":"30","num_nodes":"15","size_leaf_vector":"1"}},{"base_weights":[-3.1557676E-1,-1.954351E-2,-7.020468E-1,-7.7641326E-1,1.2465486E-1,7.807493E-2,-7.6951075E-1,-4.5066138E-4,-8.769374E-2,-9.189188E-3,7.443273E-2,-8.574865E-2,3.5511635E-5],"categories":[],"categories_nodes":[],"categories_segments":[],"categories_sizes":[],"default_left":[0,0,0,0,0,0,0,0,0,0,0,0,0],"id":64,"left_children":[1,3,5,7,9,-1,11,-1,-1,-1,-1,-1,-1],"loss_changes":[1.0592865E1,5.938485E0,4.6205463E0,6.714368E-1,6.217048E0,0E0,2.6375751E0,0E0,0E0,0E0,0E0,0E0,0E0],"parents":[2147483647,0,0,1,1,2,2,3,3,4,4,6,6],"right_children":[2,4,6,8,10,-1,12,-1,-1,-1,-1,-1,-1],"split_conditions":[-4.26745E-1,-4.9750674E-1,7.4E-1,-8.560788E-1,9.4E1,7.807493E-2,1.1587696E0,-4.5066138E-4,-8.769374E-2,-9.189188E-3,7.443273E-2,-8.574865E-2,3.5511635E-5],"split_indices":[14,11,29,16,29,0,19,0,0,0,0,0,0],"split_type":[0,0,0,0,0,0,0,0,0,0,0,0,0],"sum_hessian":[9.170846E1,5.2525143E1,3.9183315E1,7.703996E0,4.4821148E1,1.2450662E0,3.7938248E1,1.0080663E0,6.6959295E0,3.3845448E1,1.0975702E1,3.394536E1,3.9928887E0],"tree_param":{"num_deleted":"0","num_feature":"30","num_nodes":"13","size_leaf_vector":"1"}},{"base_weights":[-2.9646552E-1,-7.1454304E-1,-2.5411434E-2,-8.9426965E-1,-2.799924E-1,2.8774136E-1,-2.721878E-1,-3.582105E-2,-9.534673E-2,8.2451284E-2,-5.626588E-2,8.4346294E-2,-4.1567158E-2,7.660176E-2,-4.128189E-2],"categories":[],"categories_nodes":[],"categories_segments":[],"categories_sizes":[],"default_left":[0,0,0,0,0,0,0,0,0,0,0,0,0,0,0],"id":65,"left_children":[1,3,5,7,9,11,13,-1,-1,-1,-1,-1,-1,-1,-1],"loss_changes":[1.011574E1,2.493803E0,4.3509974E0,4.3276978E-1,4.128038E0,1.0065919E1,4.9059467E0,0E0,0E0,0E0,0E0,0E0,0E0,0E0,0E0],"parents":[2147483647,0,0,1,1,2,2,3,3,4,4,5,5,6,6],"right_children":[2,4,6,8,10,12,14,-1,-1,-1,-1,-1,-1,-1,-1],"split_conditions":[8.9407265E-1,3.7994766E-1,1.0954435E-1,-1.8031472E0,-4.6800488E-1,1.10792E5,8.9E-1,-3.582105E-2,-9.534673E-2,8.2451284E-2,-5.626588E-2,8.4346294E-2,-4.1567158E-2,7.660176E-2,-4.128189E-2],"split_indices":[4,19,8,14,8,0,29,0,0,0,0,0,0,0,0],"split_type":[0,0,0,0,0,0,0,0,0,0,0,0,0,0,0],"sum_hessian":[8.842597E1,3.4136776E1,5.4289196E1,2.3400574E1,1.0736202E1,2.3853598E1,3.0435598E1,3.0283856E0,2.0372189E1,1.7971221E0,8.93908E0,1.3214537E1,1.0639061E1,3.1003492E0,2.7335249E1],"tree_param":{"num_deleted":"0","num_feature":"30","num_nodes":"15","size_leaf_vector":"1"}},{"base_weights":[-2.7502015E-1,7.2745694E-4,-6.6776234E-1,-6.937432E-2,1.4697511E-1,-7.869171E-1,3.990686E-1,1.0620585E-2,-6.682423E-2,2.466788E-2,-8.4110424E-2,-6.508165E-2,1.4699084E-1],"categories":[],"categories_nodes":[],"categories_segments":[],"categories_sizes":[],"default_left":[0,0,0,0,0,0,0,0,0,0,0,0,0],"id":66,"left_children":[1,3,5,7,-1,9,11,-1,-1,-1,-1,-1,-1],"loss_changes":[9.463684E0,5.491588E0,4.896044E0,5.4238315E0,0E0,2.0423088E0,5.77403E0,0E0,0E0,0E0,0E0,0E0,0E0],"parents":[2147483647,0,0,1,1,2,2,3,3,5,5,6,6],"right_children":[2,4,6,8,-1,10,12,-1,-1,-1,-1,-1,-1],"split_conditions":[-4.26745E-1,-4.9979877E-1,7.303462E-1,-1.5164834E-1,1.4697511E-1,-1.6398723E0,2.1788643E-1,1.0620585E-2,-6.682423E-2,2.466788E-2,-8.4110424E-2,-6.508165E-2,1.4699084E-1],"split_indices":[14,14,20,12,0,19,19,0,0,0,0,0,0],"split_type":[0,0,0,0,0,0,0,0,0,0,0,0,0],"sum_hessian":[8.638132E1,5.1336018E1,3.5045303E1,4.9907223E1,1.4287964E0,3.1760355E1,3.2849479E0,3.9228577E1,1.0678645E1,1.4051613E0,3.0355192E1,1.8567595E0,1.4281884E0],"tree_param":{"num_deleted":"0","num_feature":"30","num_nodes":"13","size_leaf_vector":"1"}},{"base_weights":[-2.5603515E-1,-6.795747E-1,-8.669544E-3,-8.781564E-1,-2.2870685E-1,9.3411244E-2,-7.557958E-1,-3.2928217E-2,-9.459715E-2,-7.052238E-2,4.938238E-2,4.8970707E-2,-1.8928282E-2,7.6816254E-4,-9.71602E-2],"categories":[],"categories_nodes":[],"categories_segments":[],"categories_sizes":[],"default_left":[0,0,0,0,0,0,0,0,0,0,0,0,0,0,0],"id":67,"left_children":[1,3,5,7,9,11,13,-1,-1,-1,-1,-1,-1,-1,-1],"loss_changes":[8.86476E0,2.59305E0,4.2244067E0,4.817505E-1,4.0989046E0,5.560553E0,1.1042817E0,0E0,0E0,0E0,0E0,0E0,0E0,0E0,0E0],"parents":[2147483647,0,0,1,1,2,2,3,3,4,4,5,5,6,6],"right_children":[2,4,6,8,10,12,14,-1,-1,-1,-1,-1,-1,-1,-1],"split_conditions":[8.9407265E-1,3.7994766E-1,1.6817074E0,-1.8031472E0,3.1943012E-2,1.0954435E-1,-1.0035496E0,-3.2928217E-2,-9.459715E-2,-7.052238E-2,4.938238E-2,4.8970707E-2,-1.8928282E-2,7.6816254E-4,-9.71602E-2],"split_indices":[4,19,16,14,28,8,13,0,0,0,0,0,0,0,0],"split_type":[0,0,0,0,0,0,0,0,0,0,0,0,0,0,0],"sum_hessian":[8.366859E1,3.0204748E1,5.346384E1,2.031114E1,9.893607E0,4.7806896E1,5.6569433E0,2.8774595E0,1.7433681E1,5.976194E0,3.917413E0,1.9599281E1,2.8207617E1,1.459156E0,4.1977873E0],"tree_param":{"num_deleted":"0","num_feature":"30","num_nodes":"15","size_leaf_vector":"1"}},{"base_weights":[-2.3882817E-1,1.745061E-2,-6.3398546E-1,-7.43322E-1,1.4674172E-1,-7.6211673E-1,3.7213337E-1,-5.467173E-4,-8.5450344E-2,4.5097586E-2,-2.7852803E-2,3.1377215E-2,-8.2238086E-2,-6.298093E-2,1.2434186E-1],"categories":[],"categories_nodes":[],"categories_segments":[],"categories_sizes":[],"default_left":[0,0,0,0,0,0,0,0,0,0,0,0,0,0,0],"id":68,"left_children":[1,3,5,7,9,11,13,-1,-1,-1,-1,-1,-1,-1,-1],"loss_changes":[8.428095E0,5.1638474E0,4.5022964E0,6.2124395E-1,5.9167457E0,2.161398E0,4.5968547E0,0E0,0E0,0E0,0E0,0E0,0E0,0E0,0E0],"parents":[2147483647,0,0,1,1,2,2,3,3,4,4,5,5,6,6],"right_children":[2,4,6,8,10,12,14,-1,-1,-1,-1,-1,-1,-1,-1],"split_conditions":[-4.26745E-1,-4.9750674E-1,7.303462E-1,-3.6379418E-1,1.7814337E-1,-9.8616564E-1,2.1788643E-1,-5.467173E-4,-8.5450344E-2,4.5097586E-2,-2.7852803E-2,3.1377215E-2,-8.2238086E-2,-6.298093E-2,1.2434186E-1],"split_indices":[14,11,20,20,28,20,19,0,0,0,0,0,0,0,0],"split_type":[0,0,0,0,0,0,0,0,0,0,0,0,0,0,0],"sum_hessian":[8.21144E1,5.0389923E1,3.1724482E1,6.6297927E0,4.3760128E1,2.835583E1,3.368654E0,1.0055614E0,5.6242313E0,2.5475056E1,1.8285072E1,1.2809289E0,2.70749E1,1.6957543E0,1.6728996E0],"tree_param":{"num_deleted":"0","num_feature":"30","num_nodes":"15","size_leaf_vector":"1"}},{"base_weights":[-2.223249E-1,-6.459239E-1,2.3543069E-3,-9.1172196E-2,-2.6278237E-1,9.943062E-2,-7.393356E-1,-5.179171E-2,1.0410394E-1,2.630137E-2,-4.6805706E-2,-2.537974E-3,-9.7134575E-2],"categories":[],"categories_nodes":[],"categories_segments":[],"categories_sizes":[],"default_left":[0,0,0,0,0,0,0,0,0,0,0,0,0],"id":69,"left_children":[1,3,5,-1,7,9,11,-1,-1,-1,-1,-1,-1],"loss_changes":[7.731626E0,2.62747E0,3.966425E0,0E0,4.8423657E0,4.643218E0,1.0315328E0,0E0,0E0,0E0,0E0,0E0,0E0],"parents":[2147483647,0,0,1,1,2,2,4,4,5,5,6,6],"right_children":[2,4,6,-1,8,10,12,-1,-1,-1,-1,-1,-1],"split_conditions":[8.9407265E-1,1.8847294E-1,1.6817074E0,-9.1172196E-2,8.189233E-1,1.903602E-2,-1.5409266E0,-5.179171E-2,1.0410394E-1,2.630137E-2,-4.6805706E-2,-2.537974E-3,-9.7134575E-2],"split_indices":[4,19,16,0,17,14,6,0,0,0,0,0,0],"split_type":[0,0,0,0,0,0,0,0,0,0,0,0,0],"sum_hessian":[8.022086E1,2.7153025E1,5.3067837E1,1.5216934E1,1.1936091E1,4.7691643E1,5.376195E0,1.0486784E1,1.4493071E0,3.743672E1,1.0254919E1,1.5906721E0,3.785523E0],"tree_param":{"num_deleted":"0","num_feature":"30","num_nodes":"13","size_leaf_vector":"1"}},{"base_weights":[-2.0913999E-1,1.3743125E-1,-4.6428117E-1,-1.7504328E-1,9.8403525E-1,-8.1363136E-1,6.692528E-2,-3.2287277E-2,7.308311E-2,1.4129412E-1,-6.25815E-2,-2.1145437E-3,-9.23588E-2,6.2001158E-2,-5.259052E-2],"categories":[],"categories_nodes":[],"categories_segments":[],"categories_sizes":[],"default_left":[0,0,0,0,0,0,0,0,0,0,0,0,0,0,0],"id":70,"left_children":[1,3,5,7,9,11,13,-1,-1,-1,-1,-1,-1,-1,-1],"loss_changes":[7.0465755E0,9.234481E0,8.537617E0,3.700366E0,7.36512E0,2.3900871E0,6.575522E0,0E0,0E0,0E0,0E0,0E0,0E0,0E0,0E0],"parents":[2147483647,0,0,1,1,2,2,3,3,4,4,5,5,6,6],"right_children":[2,4,6,8,10,12,14,-1,-1,-1,-1,-1,-1,-1,-1],"split_conditions":[-4.5834023E-1,1.6845424E-1,5.310099E-1,1.6925588E0,-4.4453263E-2,1.29E0,1.3943247E0,-3.2287277E-2,7.308311E-2,1.4129412E-1,-6.25815E-2,-2.1145437E-3,-9.23588E-2,6.2001158E-2,-5.259052E-2],"split_indices":[16,23,17,21,12,29,2,0,0,0,0,0,0,0,0],"split_type":[0,0,0,0,0,0,0,0,0,0,0,0,0,0,0],"sum_hessian":[7.796863E1,3.3256283E1,4.471235E1,2.4870153E1,8.386127E0,2.665253E1,1.8059816E1,2.193428E1,2.9358728E0,6.718468E0,1.6676592E0,3.3927093E0,2.325982E1,9.319375E0,8.740441E0],"tree_param":{"num_deleted":"0","num_feature":"30","num_nodes":"15","size_leaf_vector":"1"}},{"base_weights":[-1.948711E-1,-6.0591537E-1,1.017145E-2,-8.9687717E-1,-2.1135181E-1,2.9971895E-1,-2.2507909E-1,-2.537555E-2,-9.261897E-2,9.0778336E-2,-4.690915E-2,-4.689136E-4,1.5017407E-1,-6.477772E-2,1.5113671E-2],"categories":[],"categories_nodes":[],"categories_segments":[],"categories_sizes":[],"default_left":[0,0,0,0,0,0,0,0,0,0,0,0,0,0,0],"id":71,"left_children":[1,3,5,7,9,11,13,-1,-1,-1,-1,-1,-1,-1,-1],"loss_changes":[6.463848E0,2.7398548E0,3.6165533E0,3.6026955E-2,3.9271562E0,8.71019E0,4.7602577E0,0E0,0E0,0E0,0E0,0E0,0E0,0E0,0E0],"parents":[2147483647,0,0,1,1,2,2,3,3,4,4,5,5,6,6],"right_children":[2,4,6,8,10,12,14,-1,-1,-1,-1,-1,-1,-1,-1],"split_conditions":[8.9407265E-1,1.8847294E-1,1.0954435E-1,-1.8578825E0,-1.9561236E0,3.3131993E-1,-1.6783983E-1,-2.537555E-2,-9.261897E-2,9.0778336E-2,-4.690915E-2,-4.689136E-4,1.5017407E-1,-6.477772E-2,1.5113671E-2],"split_indices":[4,19,8,12,3,21,26,0,0,0,0,0,0,0,0],"split_type":[0,0,0,0,0,0,0,0,0,0,0,0,0,0,0],"sum_hessian":[7.5620384E1,2.4516874E1,5.1103508E1,1.3378282E1,1.1138594E1,2.278526E1,2.8318247E1,1.0041419E0,1.237414E1,1.6129383E0,9.525656E0,1.89758E1,3.8094602E0,1.2995406E1,1.5322841E1],"tree_param":{"num_deleted":"0","num_feature":"30","num_nodes":"15","size_leaf_vector":"1"}},{"base_weights":[-1.7895213E-1,4.4429623E-2,-5.499255E-1,-1.5023823E-1,5.58335E-1,1.1086613E-1,-6.7483574E-1,1.885329E-3,-1.3235934E-1,1.1020881E-1,-2.3388436E-2,6.929333E-4,-8.215088E-2],"categories":[],"categories_nodes":[],"categories_segments":[],"categories_sizes":[],"default_left":[0,0,0,0,0,0,0,0,0,0,0,0,0],"id":72,"left_children":[1,3,5,7,9,-1,11,-1,-1,-1,-1,-1,-1],"loss_changes":[6.2781067E0,4.8885937E0,6.6396656E0,7.09227E0,6.0329986E0,0E0,2.7123327E0,0E0,0E0,0E0,0E0,0E0,0E0],"parents":[2147483647,0,0,1,1,2,2,3,3,4,4,6,6],"right_children":[2,4,6,8,10,-1,12,-1,-1,-1,-1,-1,-1],"split_conditions":[-2.6831874E-1,9.4E1,-1.3389021E0,8.885E1,8.914E4,1.1086613E-1,1.29E0,1.885329E-3,-1.3235934E-1,1.1020881E-1,-2.3388436E-2,6.929333E-4,-8.215088E-2],"split_indices":[12,29,13,29,0,0,29,0,0,0,0,0,0],"split_type":[0,0,0,0,0,0,0,0,0,0,0,0,0],"sum_hessian":[7.446487E1,4.7027485E1,2.7437384E1,3.462076E1,1.2406724E1,1.3700386E0,2.6067345E1,3.1120008E1,3.5007536E0,7.1251307E0,5.281593E0,4.783845E0,2.12835E1],"tree_param":{"num_deleted":"0","num_feature":"30","num_nodes":"13","size_leaf_vector":"1"}},{"base_weights":[-1.660174E-1,1.6082714E-1,-4.163196E-1,-1.2829779E-1,9.4707406E-1,-7.855369E-1,8.033496E-2,2.9766306E-2,-4.2112146E-2,1.317143E-1,-5.8809806E-2,-3.6486026E-4,-9.091829E-2,-2.9456252E-2,9.0972E-2],"categories":[],"categories_nodes":[],"categories_segments":[],"categories_sizes":[],"default_left":[0,0,0,0,0,0,0,0,0,0,0,0,0,0,0],"id":73,"left_children":[1,3,5,7,9,11,13,-1,-1,-1,-1,-1,-1,-1,-1],"loss_changes":[6.106463E0,7.5635934E0,7.780526E0,3.2207663E0,5.842926E0,2.3394394E0,6.130038E0,0E0,0E0,0E0,0E0,0E0,0E0,0E0,0E0],"parents":[2147483647,0,0,1,1,2,2,3,3,4,4,5,5,6,6],"right_children":[2,4,6,8,10,12,14,-1,-1,-1,-1,-1,-1,-1,-1],"split_conditions":[-4.5834023E-1,1.6845424E-1,5.310099E-1,-2.7854186E-1,-4.4453263E-2,1.29E0,-5.3967655E-1,2.9766306E-2,-4.2112146E-2,1.317143E-1,-5.8809806E-2,-3.6486026E-4,-9.091829E-2,-2.9456252E-2,9.0972E-2],"split_indices":[16,23,17,23,12,29,3,0,0,0,0,0,0,0,0],"split_type":[0,0,0,0,0,0,0,0,0,0,0,0,0,0,0],"sum_hessian":[7.282366E1,3.173785E1,4.1085808E1,2.3816633E1,7.921218E0,2.3232737E1,1.7853073E1,9.69586E0,1.4120772E1,6.4970584E0,1.4241595E0,3.3128824E0,1.9919853E1,1.2739448E1,5.1136255E0],"tree_param":{"num_deleted":"0","num_feature":"30","num_nodes":"15","size_leaf_vector":"1"}},{"base_weights":[-1.541186E-1,4.7022156E-2,-5.2682203E-1,-3.1088594E-2,1.5925294E-1,-6.851966E-1,4.5318118E-1,-8.3576605E-2,8.396474E-3,1.5394188E-3,-8.3624154E-2,-3.609724E-2,1.4955024E-1],"categories":[],"categories_nodes":[],"categories_segments":[],"categories_sizes":[],"default_left":[0,0,0,0,0,0,0,0,0,0,0,0,0],"id":74,"left_children":[1,3,5,7,-1,9,11,-1,-1,-1,-1,-1,-1],"loss_changes":[5.4221926E0,5.8054695E0,4.240131E0,4.3628674E0,0E0,2.3614721E0,4.039741E0,0E0,0E0,0E0,0E0,0E0,0E0],"parents":[2147483647,0,0,1,1,2,2,3,3,5,5,6,6],"right_children":[2,4,6,8,-1,10,12,-1,-1,-1,-1,-1,-1],"split_conditions":[-4.26745E-1,-4.9979877E-1,7.303462E-1,-4.9750674E-1,1.5925294E-1,-3.42076E-1,-1.0150374E0,-8.3576605E-2,8.396474E-3,1.5394188E-3,-8.3624154E-2,-3.609724E-2,1.4955024E-1],"split_indices":[14,14,20,11,0,20,1,0,0,0,0,0,0],"split_type":[0,0,0,0,0,0,0,0,0,0,0,0,0],"sum_hessian":[7.099839E1,4.6679962E1,2.4318428E1,4.5366974E1,1.3129861E0,2.1194145E1,3.1242828E0,4.89155E0,4.0475426E1,3.9182465E0,1.72759E1,2.1211467E0,1.0031363E0],"tree_param":{"num_deleted":"0","num_feature":"30","num_nodes":"13","size_leaf_vector":"1"}},{"base_weights":[-1.4135386E-1,-5.434788E-1,3.680917E-2,-8.7647736E-1,-1.1811336E-1,3.220689E-1,-2.0101081E-1,-2.5246218E-2,-9.105427E-2,4.657746E-2,-6.637608E-2,8.0913626E-2,-3.5699166E-2,7.761406E-2,-3.4443565E-2],"categories":[],"categories_nodes":[],"categories_segments":[],"categories_sizes":[],"default_left":[0,0,0,0,0,0,0,0,0,0,0,0,0,0,0],"id":75,"left_children":[1,3,5,7,9,11,13,-1,-1,-1,-1,-1,-1,-1,-1],"loss_changes":[5.0768056E0,2.975021E0,3.4464839E0,2.5950432E-2,3.717895E0,7.9119635E0,4.163497E0,0E0,0E0,0E0,0E0,0E0,0E0,0E0,0E0],"parents":[2147483647,0,0,1,1,2,2,3,3,4,4,5,5,6,6],"right_children":[2,4,6,8,10,12,14,-1,-1,-1,-1,-1,-1,-1,-1],"split_conditions":[8.9407265E-1,1.8847294E-1,1.0954435E-1,-1.3902448E0,-2.6987782E-1,1.10792E5,8.9E-1,-2.5246218E-2,-9.105427E-2,4.657746E-2,-6.637608E-2,8.0913626E-2,-3.5699166E-2,7.761406E-2,-3.4443565E-2],"split_indices":[4,19,8,7,3,0,29,0,0,0,0,0,0,0,0],"split_type":[0,0,0,0,0,0,0,0,0,0,0,0,0,0,0],"sum_hessian":[6.958254E1,2.0734053E1,4.8848488E1,1.1034855E1,9.699197E0,2.2048069E1,2.6800419E1,1.006614E0,1.0028241E1,4.7561283E0,4.9430685E0,1.2727504E1,9.320565E0,2.8656058E0,2.3934814E1],"tree_param":{"num_deleted":"0","num_feature":"30","num_nodes":"15","size_leaf_vector":"1"}},{"base_weights":[-1.302524E-1,1.7254227E-1,-3.7351733E-1,-1.171011E-1,8.586189E-1,-7.5453275E-1,8.0708005E-2,2.8272083E-2,-4.1500997E-2,1.2059643E-1,-6.017077E-2,2.9383698E-3,-8.92402E-2,6.47334E-2,-4.4516947E-2],"categories":[],"categories_nodes":[],"categories_segments":[],"categories_sizes":[],"default_left":[0,0,0,0,0,0,0,0,0,0,0,0,0,0,0],"id":76,"left_children":[1,3,5,7,9,11,13,-1,-1,-1,-1,-1,-1,-1,-1],"loss_changes":[5.2174606E0,6.4295883E0,6.829184E0,2.8896158E0,5.5822115E0,2.3352566E0,5.8732567E0,0E0,0E0,0E0,0E0,0E0,0E0,0E0,0E0],"parents":[2147483647,0,0,1,1,2,2,3,3,4,4,5,5,6,6],"right_children":[2,4,6,8,10,12,14,-1,-1,-1,-1,-1,-1,-1,-1],"split_conditions":[-4.5834023E-1,1.2022632E-1,5.310099E-1,-2.7854186E-1,-4.4453263E-2,1.29E0,3.3220702E-1,2.8272083E-2,-4.1500997E-2,1.2059643E-1,-6.017077E-2,2.9383698E-3,-8.92402E-2,6.47334E-2,-4.4516947E-2],"split_indices":[16,23,17,23,12,29,7,0,0,0,0,0,0,0,0],"split_type":[0,0,0,0,0,0,0,0,0,0,0,0,0,0,0],"sum_hessian":[6.8957375E1,3.0849442E1,3.8107937E1,2.227489E1,8.574551E0,2.0364527E1,1.774341E1,9.532437E0,1.2742453E1,7.0676575E0,1.5068933E0,3.1635623E0,1.7200964E1,8.429633E0,9.313777E0],"tree_param":{"num_deleted":"0","num_feature":"30","num_nodes":"15","size_leaf_vector":"1"}},{"base_weights":[-1.2135924E-1,-3.24081E-1,2.2477493E-1,5.150144E-1,-4.427711E-1,1.4694523E0,-1.9171901E-2,-5.901241E-2,1.7413469E-1,-7.668161E-2,-2.5721344E-3,2.0424997E-2,2.4870653E-1,-2.1166306E-2,1.636055E-1],"categories":[],"categories_nodes":[],"categories_segments":[],"categories_sizes":[],"default_left":[0,0,0,0,0,0,0,0,0,0,0,0,0,0,0],"id":77,"left_children":[1,3,5,7,9,11,13,-1,-1,-1,-1,-1,-1,-1,-1],"loss_changes":[4.873769E0,4.5660825E0,7.880612E0,8.969561E0,5.210035E0,4.9649878E0,7.5503845E0,0E0,0E0,0E0,0E0,0E0,0E0,0E0,0E0],"parents":[2147483647,0,0,1,1,2,2,3,3,4,4,5,5,6,6],"right_children":[2,4,6,8,10,12,14,-1,-1,-1,-1,-1,-1,-1,-1],"split_conditions":[2.8608266E-1,-1.240378E0,-5.985777E-1,2.7311897E0,3.5015233E-2,3.82993E-1,1.342572E0,-5.901241E-2,1.7413469E-1,-7.668161E-2,-2.5721344E-3,2.0424997E-2,2.4870653E-1,-2.1166306E-2,1.636055E-1],"split_indices":[21,15,25,4,28,5,15,0,0,0,0,0,0,0,0],"split_type":[0,0,0,0,0,0,0,0,0,0,0,0,0,0,0],"sum_hessian":[6.741951E1,4.2558067E1,2.4861439E1,4.860062E0,3.7698006E1,3.2508967E0,2.1610542E1,2.829227E0,2.0308354E0,2.074253E1,1.6955477E1,1.9843994E0,1.2664973E0,2.0140472E1,1.4700696E0],"tree_param":{"num_deleted":"0","num_feature":"30","num_nodes":"15","size_leaf_vector":"1"}},{"base_weights":[-1.05662405E-1,1.728276E-1,-3.3839223E-1,8.725277E-1,-1.1804691E-1,-7.2815955E-1,8.925085E-2,1.1758426E-3,2.1399353E-1,-5.6634404E-2,3.0019253E-2,4.0657497E-3,-8.767364E-2,5.7541277E-2,-4.7564834E-2],"categories":[],"categories_nodes":[],"categories_segments":[],"categories_sizes":[],"default_left":[0,0,0,0,0,0,0,0,0,0,0,0,0,0,0],"id":78,"left_children":[1,3,5,7,9,11,13,-1,-1,-1,-1,-1,-1,-1,-1],"loss_changes":[4.434312E0,6.493198E0,6.2517185E0,1.0162998E1,4.493431E0,2.266262E0,5.3789587E0,0E0,0E0,0E0,0E0,0E0,0E0,0E0,0E0],"parents":[2147483647,0,0,1,1,2,2,3,3,4,4,5,5,6,6],"right_children":[2,4,6,8,10,12,14,-1,-1,-1,-1,-1,-1,-1,-1],"split_conditions":[-4.5834023E-1,4.5559937E-3,5.310099E-1,2.1999708E-1,-1.9755574E-1,1.29E0,1.3943247E0,1.1758426E-3,2.1399353E-1,-5.6634404E-2,3.0019253E-2,4.0657497E-3,-8.767364E-2,5.7541277E-2,-4.7564834E-2],"split_indices":[16,8,17,21,26,29,2,0,0,0,0,0,0,0,0],"split_type":[0,0,0,0,0,0,0,0,0,0,0,0,0,0,0],"sum_hessian":[6.651474E1,3.039762E1,3.6117123E1,8.338836E0,2.2058784E1,1.8527683E1,1.7589441E1,5.5671453E0,2.7716908E0,1.0475899E1,1.1582886E1,3.118294E0,1.5409389E1,9.443549E0,8.145891E0],"tree_param":{"num_deleted":"0","num_feature":"30","num_nodes":"15","size_leaf_vector":"1"}},{"base_weights":[-9.606879E-2,7.561241E-2,-4.5198172E-1,-2.4084763E-3,1.482315E-1,1.17459334E-1,-7.8517425E-1,-1.8279167E-2,5.1806476E-2,-2.4198815E-2,1.4544599E-1,-9.211552E-2,2.9541848E-2],"categories":[],"categories_nodes":[],"categories_segments":[],"categories_sizes":[],"default_left":[0,0,0,0,0,0,0,0,0,0,0,0,0],"id":79,"left_children":[1,3,5,7,-1,9,11,-1,-1,-1,-1,-1,-1],"loss_changes":[4.1114E0,5.0379133E0,4.2391105E0,4.268624E0,0E0,4.6473E0,2.3173218E0,0E0,0E0,0E0,0E0,0E0,0E0],"parents":[2147483647,0,0,1,1,2,2,3,3,5,5,6,6],"right_children":[2,4,6,8,-1,10,12,-1,-1,-1,-1,-1,-1],"split_conditions":[-4.26745E-1,-4.9979877E-1,-1.3482147E-1,9.4E1,1.482315E-1,9.924705E-1,3.7249608E0,-1.8279167E-2,5.1806476E-2,-2.4198815E-2,1.4544599E-1,-9.211552E-2,2.9541848E-2],"split_indices":[14,14,8,29,0,22,4,0,0,0,0,0,0],"split_type":[0,0,0,0,0,0,0,0,0,0,0,0,0],"sum_hessian":[6.572646E1,4.4870094E1,2.0856367E1,4.345804E1,1.4120544E0,7.937793E0,1.2918574E1,3.275482E1,1.07032175E1,6.9013877E0,1.0364052E0,1.1605672E1,1.3129028E0],"tree_param":{"num_deleted":"0","num_feature":"30","num_nodes":"13","size_leaf_vector":"1"}},{"base_weights":[-8.513918E-2,8.716375E-1,-1.4708398E-1,-3.401515E-2,1.5843378E-1,1.3242893E-2,-6.644396E-1,3.4947563E-2,-3.029186E-2,4.348261E-2,-7.830323E-2],"categories":[],"categories_nodes":[],"categories_segments":[],"categories_sizes":[],"default_left":[0,0,0,0,0,0,0,0,0,0,0],"id":80,"left_children":[1,3,5,-1,-1,7,9,-1,-1,-1,-1],"loss_changes":[4.032976E0,4.1235075E0,5.2122912E0,0E0,0E0,5.301184E0,2.2778468E0,0E0,0E0,0E0,0E0],"parents":[2147483647,0,0,1,1,2,2,5,5,6,6],"right_children":[2,4,6,-1,-1,8,10,-1,-1,-1,-1],"split_conditions":[7.4E-1,3.1943012E-2,1.903602E-2,-3.401515E-2,1.5843378E-1,1.3427398E-1,-1.3830683E0,3.4947563E-2,-3.029186E-2,4.348261E-2,-7.830323E-2],"split_indices":[29,28,14,0,0,8,19,0,0,0,0],"split_type":[0,0,0,0,0,0,0,0,0,0,0],"sum_hessian":[6.488403E1,3.1505527E0,6.173348E1,1.360334E0,1.7902188E0,4.787238E1,1.3861096E1,2.3148718E1,2.4723663E1,1.0901026E0,1.2770994E1],"tree_param":{"num_deleted":"0","num_feature":"30","num_nodes":"11","size_leaf_vector":"1"}},{"base_weights":[-7.64153E-2,-2.7327928E-1,2.3354761E-1,-1.0536807E-1,-9.443162E-2,8.305984E-1,-1.9989882E-1,2.254172E-2,-5.0889272E-2,2.2065261E-1,3.7979838E-2,-7.405834E-2,2.2636147E-2],"categories":[],"categories_nodes":[],"categories_segments":[],"categories_sizes":[],"default_left":[0,0,0,0,0,0,0,0,0,0,0,0,0],"id":81,"left_children":[1,3,5,7,-1,9,11,-1,-1,-1,-1,-1,-1],"loss_changes":[4.060763E0,4.4660683E0,6.889802E0,4.5910563E0,0E0,6.060794E0,3.822763E0,0E0,0E0,0E0,0E0,0E0,0E0],"parents":[2147483647,0,0,1,1,2,2,3,3,5,5,6,6],"right_children":[2,4,6,8,-1,10,12,-1,-1,-1,-1,-1,-1],"split_conditions":[2.8608266E-1,9.611591E-1,1.7814337E-1,1.10792E5,-9.443162E-2,-1.168658E0,-2.6084098E-1,